genomestart 0
trait 1 0.1 0 0 0 0 0 0 0
trait 2 0.2 0 0 0 0 0 0 0
trait 3 0.3 0 0 0 0 0 0 0
node 1 0 0 2 0.5 0.5 0 0.167 1.0 0.0
node 2 0 0 2 0.5 0.5 0 0.333 1.0 0.0
node 3 0 0 2 0.5 0.5 0 0.500 1.0 0.0
node 4 0 0 2 0.5 0.5 0 0.667 1.0 0.0
node 5 0 0 2 0.5 0.5 0 0.833 1.0 0.0
node 6 0 0 2 0.5 0.5 0 1.000 1.0 0.0
node 7 0 0 0 0.5 0.5 0 0.167 0.5 0.0
node 8 0 0 0 0.5 0.5 0 0.333 0.5 0.0
node 9 0 0 0 0.5 0.5 0 0.500 0.5 0.0
node 10 0 0 0 0.5 0.5 0 0.667 0.5 0.0
node 11 0 0 0 0.5 0.5 0 0.833 0.5 0.0
node 12 0 0 0 0.5 0.5 0 1.000 0.5 0.0
node 13 0 1 1 0.5 0.5 0 0.167 0.0 0.0
node 14 0 1 1 0.5 0.5 0 1.000 0.0 0.0
gene 1 13 7 0.0 1 1 0 1
gene 1 13 8 0.0 1 2 0 1
gene 1 13 9 0.0 1 3 0 1
gene 1 13 10 0.0 1 4 0 1
gene 1 13 11 0.0 1 5 0 1
gene 1 13 12 0.0 1 6 0 1
gene 1 14 7 0.0 1 7 0 1
gene 1 14 8 0.0 1 8 0 1
gene 1 14 9 0.0 1 9 0 1
gene 1 14 10 0.0 1 10 0 1
gene 1 14 11 0.0 1 11 0 1
gene 1 14 12 0.0 1 12 0 1
gene 1 13 1 0.0 1 13 0 1
gene 1 13 2 0.0 1 14 0 1
gene 1 13 3 0.0 1 15 0 1
gene 1 13 4 0.0 1 16 0 1
gene 1 13 5 0.0 1 17 0 1
gene 1 13 6 0.0 1 18 0 1
gene 1 14 1 0.0 1 19 0 1
gene 1 14 2 0.0 1 20 0 1
gene 1 14 3 0.0 1 21 0 1
gene 1 14 4 0.0 1 22 0 1
gene 1 14 5 0.0 1 23 0 1
gene 1 14 6 0.0 1 24 0 1
gene 1 7 1 0.0 1 37 0 1
gene 1 7 2 0.0 1 38 0 1
gene 1 7 3 0.0 1 39 0 1
gene 1 7 4 0.0 1 40 0 1
gene 1 7 5 0.0 1 41 0 1
gene 1 7 6 0.0 1 42 0 1
gene 1 8 1 0.0 1 43 0 1
gene 1 8 2 0.0 1 44 0 1
gene 1 8 3 0.0 1 45 0 1
gene 1 8 4 0.0 1 46 0 1
gene 1 8 5 0.0 1 47 0 1
gene 1 8 6 0.0 1 48 0 1
gene 1 9 1 0.0 1 49 0 1
gene 1 9 2 0.0 1 50 0 1
gene 1 9 3 0.0 1 51 0 1
gene 1 9 4 0.0 1 52 0 1
gene 1 9 5 0.0 1 53 0 1
gene 1 9 6 0.0 1 54 0 1
gene 1 10 1 0.0 1 55 0 1
gene 1 10 2 0.0 1 56 0 1
gene 1 10 3 0.0 1 57 0 1
gene 1 10 4 0.0 1 58 0 1
gene 1 10 5 0.0 1 59 0 1
gene 1 10 6 0.0 1 60 0 1
gene 1 11 1 0.0 1 61 0 1
gene 1 11 2 0.0 1 62 0 1
gene 1 11 3 0.0 1 63 0 1
gene 1 11 4 0.0 1 64 0 1
gene 1 11 5 0.0 1 65 0 1
gene 1 11 6 0.0 1 66 0 1
gene 1 12 1 0.0 1 67 0 1
gene 1 12 2 0.0 1 68 0 1
gene 1 12 3 0.0 1 69 0 1
gene 1 12 4 0.0 1 70 0 1
gene 1 12 5 0.0 1 71 0 1
gene 1 12 6 0.0 1 72 0 1
gene 1 1 7 0.0 1 73 0 1
gene 1 1 8 0.0 1 74 0 1
gene 1 1 9 0.0 1 75 0 1
gene 1 1 10 0.0 1 76 0 1
gene 1 1 11 0.0 1 77 0 1
gene 1 1 12 0.0 1 78 0 1
gene 1 2 7 0.0 1 79 0 1
gene 1 2 8 0.0 1 80 0 1
gene 1 2 9 0.0 1 81 0 1
gene 1 2 10 0.0 1 82 0 1
gene 1 2 11 0.0 1 83 0 1
gene 1 2 12 0.0 1 84 0 1
gene 1 3 7 0.0 1 85 0 1
gene 1 3 8 0.0 1 86 0 1
gene 1 3 9 0.0 1 87 0 1
gene 1 3 10 0.0 1 88 0 1
gene 1 3 11 0.0 1 89 0 1
gene 1 3 12 0.0 1 90 0 1
gene 1 4 7 0.0 1 91 0 1
gene 1 4 8 0.0 1 92 0 1
gene 1 4 9 0.0 1 93 0 1
gene 1 4 10 0.0 1 94 0 1
gene 1 4 11 0.0 1 95 0 1
gene 1 4 12 0.0 1 96 0 1
gene 1 5 7 0.0 1 97 0 1
gene 1 5 8 0.0 1 98 0 1
gene 1 5 9 0.0 1 99 0 1
gene 1 5 10 0.0 1 100 0 1
gene 1 5 11 0.0 1 101 0 1
gene 1 5 12 0.0 1 102 0 1
gene 1 6 7 0.0 1 103 0 1
gene 1 6 8 0.0 1 104 0 1
gene 1 6 9 0.0 1 105 0 1
gene 1 6 10 0.0 1 106 0 1
gene 1 6 11 0.0 1 107 0 1
gene 1 6 12 0.0 1 108 0 1
gene 1 1 1 0.0 1 109 0 1
gene 1 1 2 0.0 1 110 1
gene 1 1 3 0.0 1 111 0 1
gene 1 1 4 0.0 1 112 0 1
gene 1 1 5 0.0 1 113 0 1
gene 1 1 6 0.0 1 114 0 1
gene 1 2 1 0.0 1 115 0 1
gene 1 2 2 0.0 1 116 0 1
gene 1 2 3 0.0 1 117 0 1
gene 1 2 4 0.0 1 118 0 1
gene 1 2 5 0.0 1 119 0 1
gene 1 2 6 0.0 1 120 0 1
gene 1 3 1 0.0 1 121 0 1
gene 1 3 2 0.0 1 122 0 1
gene 1 3 3 0.0 1 123 0 1
gene 1 3 4 0.0 1 124 0 1
gene 1 3 5 0.0 1 125 0 1
gene 1 3 6 0.0 1 126 0 1
gene 1 4 1 0.0 1 127 0 1
gene 1 4 2 0.0 1 128 0 1
gene 1 4 3 0.0 1 129 0 1
gene 1 4 4 0.0 1 130 0 1
gene 1 4 5 0.0 1 131 0 1
gene 1 4 6 0.0 1 132 0 1
gene 1 5 1 0.0 1 133 0 1
gene 1 5 2 0.0 1 134 0 1
gene 1 5 3 0.0 1 135 0 1
gene 1 5 4 0.0 1 136 0 1
gene 1 5 5 0.0 1 137 0 1
gene 1 5 6 0.0 1 138 0 1
gene 1 6 1 0.0 1 139 0 1
gene 1 6 2 0.0 1 140 0 1
gene 1 6 3 0.0 1 141 0 1
gene 1 6 4 0.0 1 142 0 1
gene 1 6 5 0.0 1 143 0 1
gene 1 6 6 0.0 1 144 0 1
gene 1 7 7 0.0 1 145 0 1
gene 1 7 8 0.0 1 146 0 1
gene 1 7 9 0.0 1 147 0 1
gene 1 7 10 0.0 1 148 0 1
gene 1 7 11 0.0 1 149 0 1
gene 1 7 12 0.0 1 150 0 1
gene 1 8 7 0.0 1 151 0 1
gene 1 8 8 0.0 1 152 0 1
gene 1 8 9 0.0 1 153 0 1
gene 1 8 10 0.0 1 154 0 1
gene 1 8 11 0.0 1 155 0 1
gene 1 8 12 0.0 1 156 0 1
gene 1 9 7 0.0 1 157 0 1
gene 1 9 8 0.0 1 158 0 1
gene 1 9 9 0.0 1 159 0 1
gene 1 9 10 0.0 1 160 0 1
gene 1 9 11 0.0 1 161 0 1
gene 1 9 12 0.0 1 162 0 1
gene 1 10 7 0.0 1 163 0 1
gene 1 10 8 0.0 1 164 0 1
gene 1 10 9 0.0 1 165 0 1
gene 1 10 10 0.0 1 166 0 1
gene 1 10 11 0.0 1 167 0 1
gene 1 10 12 0.0 1 168 0 1
gene 1 11 7 0.0 1 169 0 1
gene 1 11 8 0.0 1 170 0 1
gene 1 11 9 0.0 1 171 0 1
gene 1 11 10 0.0 1 172 0 1
gene 1 11 11 0.0 1 173 0 1
gene 1 11 12 0.0 1 174 0 1
gene 1 12 7 0.0 1 175 0 1
gene 1 12 8 0.0 1 176 0 1
gene 1 12 9 0.0 1 177 0 1
gene 1 12 10 0.0 1 178 0 1
gene 1 12 11 0.0 1 179 0 1
gene 1 12 12 0.0 1 180 0 1
genomeend 0
