
/* Species #1 : (Size 52) (AF 0) (Age 1)  */


/* Organism #630 Fitness: 136 Error: 0 */
genomestart 630
trait 1 0.186103 0 0 0 0.0138378 0.126015 0 0 
trait 2 0.2 0.03228 0 0 0 0 0 0 
trait 3 0.3 0 0 0 0 0 0 0 
node 1 3 1 1 -4.8367e-026 -4.8367e-026
node 2 2 1 1 -4.8367e-026 -4.8367e-026
node 3 2 1 1 -4.8367e-026 -4.8367e-026
node 4 3 1 1 -4.8367e-026 -4.8367e-026
node 5 1 1 1 -4.8367e-026 -4.8367e-026
node 6 2 1 1 -4.8367e-026 -4.8367e-026
node 7 2 1 3 -4.8367e-026 -4.8367e-026
node 8 1 0 2 -4.8367e-026 -4.8367e-026
gene 3 1 8 -1.23423 0 1 -1.23423 1
gene 3 2 8 1.98836 0 2 1.98836 1
gene 1 3 8 0.166185 0 3 0.166185 1
gene 2 4 8 -1.87521 0 4 -1.87521 1
gene 1 5 8 3.35775 0 5 3.35775 1
gene 3 6 8 1.30153 0 6 1.30153 1
gene 3 7 8 -0.663348 0 7 -0.663348 1
gene 3 8 8 -0.443655 1 14 -0.443655 1
genomeend 630

/* Organism #1903 Fitness: 132 Error: 0 */
genomestart 1903
trait 1 0.11013 0 0 0 0.00162797 0.0148253 0 0 
trait 2 0.2 0 0 0 0 0 0 0 
trait 3 0.3 0 0 0 0 0 0 0 
node 1 3 1 1 -4.8367e-026 -4.8367e-026
node 2 2 1 1 -4.8367e-026 -4.8367e-026
node 3 2 1 1 -4.8367e-026 -4.8367e-026
node 4 3 1 1 -4.8367e-026 -4.8367e-026
node 5 1 1 1 -4.8367e-026 -4.8367e-026
node 6 2 1 1 -4.8367e-026 -4.8367e-026
node 7 2 1 3 -4.8367e-026 -4.8367e-026
node 8 1 0 2 -4.8367e-026 -4.8367e-026
gene 3 1 8 -1.11068 0 1 -1.11068 1
gene 3 2 8 1.93829 0 2 1.93829 1
gene 1 3 8 -0.270095 0 3 -0.270095 1
gene 2 4 8 -2.43908 0 4 -2.43908 1
gene 1 5 8 3.34904 0 5 3.34904 1
gene 3 6 8 0.778821 0 6 0.778821 1
gene 3 7 8 -0.488823 0 7 -0.488823 1
gene 3 8 8 -0.730592 1 14 -0.730592 1
genomeend 1903

/* Organism #1773 Fitness: 131 Error: 0 */
genomestart 1773
trait 1 0.150649 0 0 0 0.00813986 0.0741266 0 0 
trait 2 0.2 0 0 0 0 0 0 0 
trait 3 0.3 0 0 0 0 0 0 0 
node 1 3 1 1 -4.8367e-026 -4.8367e-026
node 2 2 1 1 -4.8367e-026 -4.8367e-026
node 3 2 1 1 -4.8367e-026 -4.8367e-026
node 4 3 1 1 -4.8367e-026 -4.8367e-026
node 5 1 1 1 -4.8367e-026 -4.8367e-026
node 6 2 1 1 -4.8367e-026 -4.8367e-026
node 7 2 1 3 -4.8367e-026 -4.8367e-026
node 8 1 0 2 -4.8367e-026 -4.8367e-026
gene 3 1 8 -0.782816 0 1 -0.782816 1
gene 3 2 8 1.52741 0 2 1.52741 1
gene 1 3 8 -0.0778799 0 3 -0.0778799 1
gene 2 4 8 -2.11021 0 4 -2.11021 1
gene 1 5 8 3.38359 0 5 3.38359 1
gene 3 6 8 1.23042 0 6 1.23042 1
gene 3 7 8 -0.0824019 0 7 -0.0824019 1
gene 3 8 8 -0.730592 1 14 -0.730592 1
genomeend 1773

/* Organism #3295 Fitness: 129 Error: 0 */
genomestart 3295
trait 1 0.159512 0 0 0 0.00956433 0.0870988 0 0 
trait 2 0.2 0 0 0 0 0 0 0 
trait 3 0.3 0 0 0 0 0 0 0 
node 1 3 1 1 -4.8367e-026 -4.8367e-026
node 2 2 1 1 -4.8367e-026 -4.8367e-026
node 3 2 1 1 -4.8367e-026 -4.8367e-026
node 4 3 1 1 -4.8367e-026 -4.8367e-026
node 5 1 1 1 -4.8367e-026 -4.8367e-026
node 6 2 1 1 -4.8367e-026 -4.8367e-026
node 7 2 1 3 -4.8367e-026 -4.8367e-026
node 8 1 0 2 -4.8367e-026 -4.8367e-026
gene 3 1 8 -0.867643 0 1 -0.867643 1
gene 3 2 8 1.49365 0 2 1.49365 1
gene 1 3 8 -0.0938101 0 3 -0.0938101 1
gene 2 4 8 -2.42699 0 4 -2.42699 1
gene 1 5 8 3.38664 0 5 3.38664 1
gene 3 6 8 1.08415 0 6 1.08415 1
gene 3 7 8 -0.217819 0 7 -0.217819 1
gene 3 8 8 -0.7225 1 14 -0.7225 1
genomeend 3295

/* Organism #3298 Fitness: 126 Error: 0 */
genomestart 3298
trait 1 0.1 0 0 0 0 0 0 0 
trait 2 0.2 0 0 0 0 0 0 0 
trait 3 0.3 0 0 0 0 0 0 0 
node 1 1 1 1 -4.8367e-026 -4.8367e-026
node 2 2 1 1 -4.8367e-026 -4.8367e-026
node 3 1 1 1 -4.8367e-026 -4.8367e-026
node 4 2 1 1 -4.8367e-026 -4.8367e-026
node 5 1 1 1 -4.8367e-026 -4.8367e-026
node 6 1 1 1 -4.8367e-026 -4.8367e-026
node 7 1 1 3 -4.8367e-026 -4.8367e-026
node 8 3 0 2 -4.8367e-026 -4.8367e-026
gene 2 1 8 -0.383923 0 1 -0.383923 1
gene 2 2 8 0.92938 0 2 0.92938 1
gene 1 3 8 0.291116 0 3 0.291116 1
gene 2 4 8 0.0580767 0 4 0.0580767 1
gene 3 5 8 1.10865 0 5 1.10865 1
gene 3 6 8 0.497147 0 6 0.497147 1
gene 1 7 8 -0.643056 0 7 -0.643056 1
genomeend 3298

/* Organism #3282 Fitness: 126 Error: 0 */
genomestart 3282
trait 1 0.1 0 0 0 0 0 0 0 
trait 2 0.2 0 0 0 0 0 0 0 
trait 3 0.3 0 0 0 0 0 0 0 
node 1 1 1 1 -4.8367e-026 -4.8367e-026
node 2 2 1 1 -4.8367e-026 -4.8367e-026
node 3 1 1 1 -4.8367e-026 -4.8367e-026
node 4 2 1 1 -4.8367e-026 -4.8367e-026
node 5 1 1 1 -4.8367e-026 -4.8367e-026
node 6 1 1 1 -4.8367e-026 -4.8367e-026
node 7 1 1 3 -4.8367e-026 -4.8367e-026
node 8 3 0 2 -4.8367e-026 -4.8367e-026
gene 2 1 8 -0.383923 0 1 -0.383923 1
gene 2 2 8 0.92938 0 2 0.92938 1
gene 1 3 8 0.291116 0 3 0.291116 1
gene 2 4 8 0.0580767 0 4 0.0580767 1
gene 3 5 8 1.10865 0 5 1.10865 1
gene 3 6 8 0.497147 0 6 0.497147 1
gene 1 7 8 -0.643056 0 7 -0.643056 1
genomeend 3282

/* Organism #3141 Fitness: 126 Error: 0 */
genomestart 3141
trait 1 0.1 0 0 0 0 0 0 0 
trait 2 0.2 0 0 0 0 0 0 0 
trait 3 0.3 0 0 0 0 0 0 0 
node 1 1 1 1 -4.8367e-026 -4.8367e-026
node 2 2 1 1 -4.8367e-026 -4.8367e-026
node 3 1 1 1 -4.8367e-026 -4.8367e-026
node 4 2 1 1 -4.8367e-026 -4.8367e-026
node 5 1 1 1 -4.8367e-026 -4.8367e-026
node 6 1 1 1 -4.8367e-026 -4.8367e-026
node 7 1 1 3 -4.8367e-026 -4.8367e-026
node 8 3 0 2 -4.8367e-026 -4.8367e-026
gene 2 1 8 -0.383923 0 1 -0.383923 1
gene 2 2 8 0.92938 0 2 0.92938 1
gene 1 3 8 0.291116 0 3 0.291116 1
gene 2 4 8 0.0580767 0 4 0.0580767 1
gene 3 5 8 1.10865 0 5 1.10865 1
gene 3 6 8 0.497147 0 6 0.497147 1
gene 1 7 8 -0.643056 0 7 -0.643056 1
genomeend 3141

/* Organism #1479 Fitness: 126 Error: 0 */
genomestart 1479
trait 1 0.1 0 0 0 0 0 0 0 
trait 2 0.2 0 0 0 0 0 0 0 
trait 3 0.3 0 0 0 0 0 0 0 
node 1 1 1 1 -4.8367e-026 -4.8367e-026
node 2 2 1 1 -4.8367e-026 -4.8367e-026
node 3 1 1 1 -4.8367e-026 -4.8367e-026
node 4 2 1 1 -4.8367e-026 -4.8367e-026
node 5 1 1 1 -4.8367e-026 -4.8367e-026
node 6 1 1 1 -4.8367e-026 -4.8367e-026
node 7 1 1 3 -4.8367e-026 -4.8367e-026
node 8 3 0 2 -4.8367e-026 -4.8367e-026
gene 2 1 8 -0.383923 0 1 -0.383923 1
gene 2 2 8 0.92938 0 2 0.92938 1
gene 1 3 8 0.291116 0 3 0.291116 1
gene 2 4 8 0.0580767 0 4 0.0580767 1
gene 3 5 8 1.10865 0 5 1.10865 1
gene 3 6 8 0.497147 0 6 0.497147 1
gene 1 7 8 -0.643056 0 7 -0.643056 1
genomeend 1479

/* Organism #557 Fitness: 124 Error: 0 */
genomestart 557
trait 1 0.1 0 0 0 0 0 0 0 
trait 2 0.2 0.0234764 0 0 0 0 0 0 
trait 3 0.3 0 0 0 0 0 0 0 
node 1 3 1 1 -4.8367e-026 -4.8367e-026
node 2 2 1 1 -4.8367e-026 -4.8367e-026
node 3 2 1 1 -4.8367e-026 -4.8367e-026
node 4 3 1 1 -4.8367e-026 -4.8367e-026
node 5 1 1 1 -4.8367e-026 -4.8367e-026
node 6 2 1 1 -4.8367e-026 -4.8367e-026
node 7 2 1 3 -4.8367e-026 -4.8367e-026
node 8 1 0 2 -4.8367e-026 -4.8367e-026
gene 3 1 8 -1.29936 0 1 -1.29936 1
gene 3 2 8 1.54598 0 2 1.54598 1
gene 1 3 8 0.236417 0 3 0.236417 1
gene 2 4 8 -1.90682 0 4 -1.90682 1
gene 1 5 8 3.49098 0 5 3.49098 1
gene 3 6 8 0.766503 0 6 0.766503 1
gene 3 7 8 -0.808359 0 7 -0.808359 1
gene 3 8 8 -0.516737 1 14 -0.516737 1
genomeend 557

/* Organism #2335 Fitness: 124 Error: 0 */
genomestart 2335
trait 1 0.1 0 0 0 0 0 0 0 
trait 2 0.2 0.0234764 0 0 0 0 0 0 
trait 3 0.3 0 0 0 0 0 0 0 
node 1 3 1 1 -4.8367e-026 -4.8367e-026
node 2 2 1 1 -4.8367e-026 -4.8367e-026
node 3 2 1 1 -4.8367e-026 -4.8367e-026
node 4 3 1 1 -4.8367e-026 -4.8367e-026
node 5 1 1 1 -4.8367e-026 -4.8367e-026
node 6 2 1 1 -4.8367e-026 -4.8367e-026
node 7 2 1 3 -4.8367e-026 -4.8367e-026
node 8 1 0 2 -4.8367e-026 -4.8367e-026
gene 3 1 8 -1.29936 0 1 -1.29936 1
gene 3 2 8 1.54598 0 2 1.54598 1
gene 1 3 8 0.236417 0 3 0.236417 1
gene 2 4 8 -1.90682 0 4 -1.90682 1
gene 1 5 8 3.49098 0 5 3.49098 1
gene 3 6 8 0.766503 0 6 0.766503 1
gene 3 7 8 -0.808359 0 7 -0.808359 1
gene 3 8 8 -0.516737 1 14 -0.516737 1
genomeend 2335

/* Organism #1755 Fitness: 122 Error: 0 */
genomestart 1755
trait 1 0.181038 0 0 0 0.0130238 0.118603 0 0 
trait 2 0.2 0 0 0 0 0 0 0 
trait 3 0.3 0 0 0 0 0 0 0 
node 1 3 1 1 -4.8367e-026 -0.755004
node 2 2 1 1 -4.8367e-026 -4.8367e-026
node 3 2 1 1 0.357237 -0.393152
node 4 3 1 1 -0.0024781 -4.8367e-026
node 5 1 1 1 -4.8367e-026 0.346471
node 6 3 1 1 -0.26379 -0.693356
node 7 2 1 3 0.391809 -4.8367e-026
node 8 1 0 2 -4.8367e-026 0.777856
gene 3 1 8 -1.77595 0 1 -1.77595 1
gene 3 2 8 0.796643 0 2 0.796643 1
gene 1 3 8 0.327039 0 3 0.327039 1
gene 2 4 8 -2.0144 0 4 -2.0144 1
gene 1 5 8 3.72924 0 5 3.72924 1
gene 3 6 8 1.56436 0 6 1.56436 1
gene 3 7 8 -0.946402 0 7 -0.946402 1
gene 3 8 8 0.0429333 1 14 0.0429333 1
genomeend 1755

/* Organism #2958 Fitness: 122 Error: 0 */
genomestart 2958
trait 1 0.181038 0 0 0 0.0130238 0.118603 0 0 
trait 2 0.2 0 0 0 0 0 0 0 
trait 3 0.3 0 0 0 0 0 0 0 
node 1 3 1 1 -4.8367e-026 -0.755004
node 2 2 1 1 -4.8367e-026 -4.8367e-026
node 3 2 1 1 0.357237 -0.393152
node 4 3 1 1 -0.0024781 -4.8367e-026
node 5 1 1 1 -4.8367e-026 0.346471
node 6 3 1 1 -0.26379 -0.693356
node 7 2 1 3 0.391809 -4.8367e-026
node 8 1 0 2 -4.8367e-026 0.777856
gene 3 1 8 -1.77595 0 1 -1.77595 1
gene 3 2 8 0.796643 0 2 0.796643 1
gene 1 3 8 0.327039 0 3 0.327039 1
gene 2 4 8 -2.0144 0 4 -2.0144 1
gene 1 5 8 3.72924 0 5 3.72924 1
gene 3 6 8 1.56436 0 6 1.56436 1
gene 3 7 8 -0.946402 0 7 -0.946402 1
gene 3 8 8 0.0429333 1 14 0.0429333 1
genomeend 2958

/* Organism #2201 Fitness: 122 Error: 0 */
genomestart 2201
trait 1 0.198765 0 0 0 0.0158727 0.144547 0 0 
trait 2 0.2 0 0 0 0 0 0 0 
trait 3 0.3 0 0 0 0 0 0 0 
node 1 3 1 1 -4.8367e-026 -4.8367e-026
node 2 2 1 1 -4.8367e-026 -4.8367e-026
node 3 2 1 1 -4.8367e-026 -4.8367e-026
node 4 3 1 1 -4.8367e-026 -4.8367e-026
node 5 1 1 1 -4.8367e-026 -4.8367e-026
node 6 2 1 1 -4.8367e-026 -4.8367e-026
node 7 2 1 3 -4.8367e-026 -4.8367e-026
node 8 1 0 2 -4.8367e-026 -4.8367e-026
gene 3 1 8 -1.27565 0 1 -1.27565 1
gene 3 2 8 1.26871 0 2 1.26871 1
gene 1 3 8 0.314587 0 3 0.314587 1
gene 2 4 8 -2.34311 0 4 -2.34311 1
gene 1 5 8 3.33908 0 5 3.33908 1
gene 3 6 8 1.37716 0 6 1.37716 1
gene 3 7 8 -0.266352 0 7 -0.266352 1
gene 3 8 8 -0.602926 1 14 -0.602926 1
genomeend 2201

/* Organism #1100 Fitness: 119 Error: 0 */
genomestart 1100
trait 1 0.262076 0 0 0 0.0260475 0.237205 0 0 
trait 2 0.2 0 0 0 0 0 0 0 
trait 3 0.3 0 0 0 0 0 0 0 
node 1 3 1 1 -4.8367e-026 -4.8367e-026
node 2 2 1 1 -4.8367e-026 -4.8367e-026
node 3 2 1 1 -4.8367e-026 -4.8367e-026
node 4 3 1 1 -4.8367e-026 -4.8367e-026
node 5 1 1 1 -4.8367e-026 -4.8367e-026
node 6 2 1 1 -4.8367e-026 -4.8367e-026
node 7 2 1 3 -4.8367e-026 -4.8367e-026
node 8 1 0 2 -4.8367e-026 -4.8367e-026
gene 3 1 8 -1.64481 0 1 -1.64481 1
gene 3 2 8 1.44232 0 2 1.44232 1
gene 1 3 8 0.319035 0 3 0.319035 1
gene 2 4 8 -2.07095 0 4 -2.07095 1
gene 1 5 8 3.37552 0 5 3.37552 1
gene 3 6 8 1.38974 0 6 1.38974 1
gene 3 7 8 -0.255158 0 7 -0.255158 1
gene 3 8 8 -0.642764 1 14 -0.642764 1
genomeend 1100

/* Organism #1732 Fitness: 116 Error: 0 */
genomestart 1732
trait 1 0.12026 0 0 0 0.00325594 0.0296506 0 0 
trait 2 0.2 0.0117382 0 0 0 0 0 0 
trait 3 0.3 0 0 0 0 0 0 0 
node 1 3 1 1 -4.8367e-026 -4.8367e-026
node 2 2 1 1 -4.8367e-026 -4.8367e-026
node 3 2 1 1 -4.8367e-026 -4.8367e-026
node 4 3 1 1 -4.8367e-026 -4.8367e-026
node 5 1 1 1 -4.8367e-026 -4.8367e-026
node 6 2 1 1 -4.8367e-026 -4.8367e-026
node 7 2 1 3 -4.8367e-026 -4.8367e-026
node 8 1 0 2 -4.8367e-026 -4.8367e-026
gene 3 1 8 -1.53798 0 1 -1.53798 1
gene 3 2 8 1.46689 0 2 1.46689 1
gene 1 3 8 0.267781 0 3 0.267781 1
gene 2 4 8 -2.18304 0 4 -2.18304 1
gene 1 5 8 3.40644 0 5 3.40644 1
gene 3 6 8 1.67137 0 6 1.67137 1
gene 3 7 8 -0.00584453 0 7 -0.00584453 1
gene 3 8 8 -0.591577 1 14 -0.591577 1
genomeend 1732

/* Organism #2386 Fitness: 113 Error: 0 */
genomestart 2386
trait 1 0.226622 0.0494839 0 0 0.0203496 0.185316 0.00750374 0 
trait 2 0.225 0.00146727 0.0173593 0.0261429 0 0 0 0 
trait 3 0.3 0 0 0 0 0 0 0 
node 1 3 1 1 -4.8367e-026 0.119144
node 2 2 1 1 -4.8367e-026 -0.104129
node 3 2 1 1 -4.8367e-026 -0.480288
node 4 3 1 1 -4.8367e-026 -4.8367e-026
node 5 1 1 1 0.0783715 0.0509537
node 6 2 1 1 -0.290085 -0.322251
node 7 2 1 3 -0.285861 -4.8367e-026
node 8 1 0 2 -4.8367e-026 0.79563
gene 3 1 8 -1.13714 0 1 -1.13714 1
gene 3 2 8 1.44708 0 2 1.44708 1
gene 1 3 8 0.139116 0 3 0.139116 1
gene 2 4 8 -2.059 0 4 -2.059 1
gene 1 5 8 3.20385 0 5 3.20385 1
gene 3 6 8 1.61064 0 6 1.61064 1
gene 3 7 8 -0.222595 0 7 -0.222595 1
gene 3 8 8 -0.483779 1 14 -0.483779 1
genomeend 2386

/* Organism #942 Fitness: 110 Error: 0 */
genomestart 942
trait 1 0.12026 0 0 0 0.00325594 0.0296506 0 0 
trait 2 0.2 0 0 0 0 0 0 0 
trait 3 0.3 0 0 0 0 0 0 0 
node 1 3 1 1 -4.8367e-026 -4.8367e-026
node 2 2 1 1 -4.8367e-026 -4.8367e-026
node 3 2 1 1 -4.8367e-026 -4.8367e-026
node 4 3 1 1 -4.8367e-026 -4.8367e-026
node 5 1 1 1 -4.8367e-026 -4.8367e-026
node 6 2 1 1 -4.8367e-026 -4.8367e-026
node 7 2 1 3 -4.8367e-026 -4.8367e-026
node 8 1 0 2 -4.8367e-026 -4.8367e-026
gene 3 1 8 -0.459641 0 1 -0.459641 1
gene 3 2 8 1.71858 0 2 1.71858 1
gene 1 3 8 -0.502207 0 3 -0.502207 1
gene 2 4 8 -2.51087 0 4 -2.51087 1
gene 1 5 8 3.4342 0 5 3.4342 1
gene 3 6 8 0.791139 0 6 0.791139 1
gene 3 7 8 -0.169286 0 7 -0.169286 1
gene 3 8 8 -0.842074 1 14 -0.842074 1
genomeend 942

/* Organism #1044 Fitness: 110 Error: 0 */
genomestart 1044
trait 1 0.322855 0 0 0 0.0358154 0.326157 0 0 
trait 2 0.2 0 0 0 0 0 0 0 
trait 3 0.3 0 0 0 0 0 0 0 
node 1 3 1 1 -4.8367e-026 0.119144
node 2 2 1 1 -4.8367e-026 -0.104129
node 3 2 1 1 -4.8367e-026 -0.480288
node 4 3 1 1 -4.8367e-026 -4.8367e-026
node 5 1 1 1 0.0783715 0.0509537
node 6 2 1 1 -0.290085 -0.322251
node 7 2 1 3 -0.285861 -4.8367e-026
node 8 1 0 2 -4.8367e-026 0.79563
gene 3 1 8 -1.16798 0 1 -1.16798 1
gene 3 2 8 1.4886 0 2 1.4886 1
gene 1 3 8 0.0229683 0 3 0.0229683 1
gene 2 4 8 -1.84162 0 4 -1.84162 1
gene 1 5 8 3.41842 0 5 3.41842 1
gene 3 6 8 1.37157 0 6 1.37157 1
gene 3 7 8 -0.57001 0 7 -0.57001 1
gene 3 8 8 -0.374897 1 14 -0.374897 1
genomeend 1044

/* Organism #2340 Fitness: 109 Error: 0 */
genomestart 2340
trait 1 0.130389 0.0989677 0 0 0.00488392 0.044476 0.0150075 0 
trait 2 0.25 0.00293455 0.0347186 0.0522858 0 0 0 0 
trait 3 0.3 0 0 0 0 0 0 0 
node 1 3 1 1 -4.8367e-026 -4.8367e-026
node 2 2 1 1 -4.8367e-026 -4.8367e-026
node 3 2 1 1 -4.8367e-026 -4.8367e-026
node 4 3 1 1 -4.8367e-026 -4.8367e-026
node 5 1 1 1 -4.8367e-026 -4.8367e-026
node 6 2 1 1 -4.8367e-026 -4.8367e-026
node 7 2 1 3 -4.8367e-026 -4.8367e-026
node 8 1 0 2 -4.8367e-026 -4.8367e-026
gene 3 1 8 -1.1063 0 1 -1.1063 1
gene 3 2 8 1.40556 0 2 1.40556 1
gene 1 3 8 0.255265 0 3 0.255265 1
gene 2 4 8 -2.27638 0 4 -2.27638 1
gene 1 5 8 2.98928 0 5 2.98928 1
gene 3 6 8 1.84972 0 6 1.84972 1
gene 3 7 8 0.124821 0 7 0.124821 1
gene 3 8 8 -0.592662 1 14 -0.592662 1
genomeend 2340

/* Organism #920 Fitness: 106 Error: 0 */
genomestart 920
trait 1 0.150649 0 0 0 0.00813986 0.0741266 0 0 
trait 2 0.2 0.0234764 0 0 0 0 0 0 
trait 3 0.3 0 0 0 0 0 0 0 
node 1 3 1 1 -4.8367e-026 -4.8367e-026
node 2 2 1 1 -4.8367e-026 -4.8367e-026
node 3 2 1 1 -4.8367e-026 -4.8367e-026
node 4 3 1 1 -4.8367e-026 -4.8367e-026
node 5 1 1 1 -4.8367e-026 -4.8367e-026
node 6 2 1 1 -4.8367e-026 -4.8367e-026
node 7 2 1 3 -4.8367e-026 -4.8367e-026
node 8 1 0 2 -4.8367e-026 -4.8367e-026
gene 3 1 8 -1.56177 0 1 -1.56177 1
gene 3 2 8 1.56442 0 2 1.56442 1
gene 1 3 8 0.321485 0 3 0.321485 1
gene 2 4 8 -1.88253 0 4 -1.88253 1
gene 1 5 8 3.36952 0 5 3.36952 1
gene 3 6 8 1.48601 0 6 1.48601 1
gene 3 7 8 -0.259795 0 7 -0.259795 1
gene 3 8 8 -0.548683 1 14 -0.548683 1
genomeend 920

/* Organism #2476 Fitness: 105 Error: 0 */
genomestart 2476
trait 1 0.160779 0.0494839 0 0 0.00976783 0.0889519 0.00750374 0 
trait 2 0.225 0.00146727 0.0173593 0.0261429 0 0 0 0 
trait 3 0.3 0 0 0 0 0 0 0 
node 1 3 1 1 -4.8367e-026 -4.8367e-026
node 2 2 1 1 -4.8367e-026 -4.8367e-026
node 3 2 1 1 -4.8367e-026 -4.8367e-026
node 4 3 1 1 -4.8367e-026 -4.8367e-026
node 5 1 1 1 -4.8367e-026 -4.8367e-026
node 6 2 1 1 -4.8367e-026 -4.8367e-026
node 7 2 1 3 -4.8367e-026 -4.8367e-026
node 8 1 0 2 -4.8367e-026 -4.8367e-026
gene 3 1 8 -1.37427 0 1 -1.37427 1
gene 3 2 8 1.18439 0 2 1.18439 1
gene 1 3 8 -0.290057 0 3 -0.290057 1
gene 2 4 8 -2.73251 0 4 -2.73251 1
gene 1 5 8 3.51727 0 5 3.51727 1
gene 3 6 8 1.16127 0 6 1.16127 1
gene 3 7 8 -0.270185 0 7 -0.270185 1
gene 3 8 8 -0.607551 1 14 -0.607551 1
genomeend 2476

/* Organism #2787 Fitness: 105 Error: 0 */
genomestart 2787
trait 1 0.11013 0 0 0 0.00162797 0.0148253 0 0 
trait 2 0.15 0 0.174459 0.124889 0.156758 0 0.0248878 0 
trait 3 0.3 0 0 0 0 0.0620212 0.0590228 0 
node 1 2 1 1 -4.8367e-026 -4.8367e-026
node 2 3 1 1 -4.8367e-026 -4.8367e-026
node 3 1 1 1 -4.8367e-026 -4.8367e-026
node 4 1 1 1 -4.8367e-026 -4.8367e-026
node 5 1 1 1 -4.8367e-026 -4.8367e-026
node 6 1 1 1 -4.8367e-026 -4.8367e-026
node 7 1 1 3 -4.8367e-026 -4.8367e-026
node 8 3 0 2 -4.8367e-026 -4.8367e-026
gene 1 1 8 1.22098 0 1 1.22098 1
gene 1 2 8 0.059904 0 2 0.059904 1
gene 1 3 8 0.219699 0 3 0.219699 1
gene 2 4 8 -1.04389 0 4 -1.04389 1
gene 1 5 8 1.83901 0 5 1.83901 1
gene 1 6 8 1.78657 0 6 1.78657 1
gene 3 7 8 -0.0740379 0 7 -0.0740379 1
gene 3 8 8 -0.116962 1 14 -0.116962 1
genomeend 2787

/* Organism #3046 Fitness: 104 Error: 0 */
genomestart 3046
trait 1 0.125324 0 0 0 0.00406993 0.0370633 0 0 
trait 2 0.175 0 0.0872295 0.0624447 0.0783792 0 0.0124439 0 
trait 3 0.3 0 0 0 0 0.155053 0.147557 0 
node 1 3 1 1 -4.8367e-026 -4.8367e-026
node 2 2 1 1 -4.8367e-026 -4.8367e-026
node 3 2 1 1 -4.8367e-026 -4.8367e-026
node 4 3 1 1 -4.8367e-026 -4.8367e-026
node 5 1 1 1 -4.8367e-026 -4.8367e-026
node 6 2 1 1 -4.8367e-026 -4.8367e-026
node 7 2 1 3 -4.8367e-026 -4.8367e-026
node 8 1 0 2 -4.8367e-026 -4.8367e-026
gene 3 1 8 0.694632 0 1 0.694632 1
gene 1 2 8 0.927807 0 2 0.927807 1
gene 1 3 8 0.168442 0 3 0.168442 1
gene 2 4 8 -2.45974 0 4 -2.45974 1
gene 1 5 8 1.41255 0 5 1.41255 1
gene 3 6 8 1.18422 0 6 1.18422 1
gene 3 7 8 -0.858425 0 7 -0.858425 1
gene 3 8 8 0.08018 1 14 0.08018 1
genomeend 3046

/* Organism #438 Fitness: 104 Error: 0 */
genomestart 438
trait 1 0.1 0 0 0 0 0 0 0 
trait 2 0.2 0 0 0 0 0 0 0 
trait 3 0.3 0 0 0 0 0 0 0 
node 1 3 1 1 -4.8367e-026 -4.8367e-026
node 2 2 1 1 -4.8367e-026 -4.8367e-026
node 3 2 1 1 -4.8367e-026 -4.8367e-026
node 4 3 1 1 -4.8367e-026 -4.8367e-026
node 5 1 1 1 -4.8367e-026 -4.8367e-026
node 6 2 1 1 -4.8367e-026 -4.8367e-026
node 7 2 1 3 -4.8367e-026 -4.8367e-026
node 8 1 0 2 -4.8367e-026 -4.8367e-026
gene 3 1 8 -1.53264 0 1 -1.53264 1
gene 3 2 8 1.39881 0 2 1.39881 1
gene 1 3 8 0.401271 0 3 0.401271 1
gene 2 4 8 -2.17449 0 4 -2.17449 1
gene 1 5 8 3.43385 0 5 3.43385 1
gene 3 6 8 1.56473 0 6 1.56473 1
gene 3 7 8 -0.0105747 0 7 -0.0105747 1
gene 3 8 8 -0.640362 1 14 -0.640362 1
genomeend 438

/* Organism #395 Fitness: 103 Error: 0 */
genomestart 395
trait 1 0.1 0 0 0 0 0 0 0 
trait 2 0.2 0 0 0 0 0 0 0 
trait 3 0.3 0 0 0 0 0 0 0 
node 1 3 1 1 -4.8367e-026 -4.8367e-026
node 2 2 1 1 -4.8367e-026 -4.8367e-026
node 3 2 1 1 -4.8367e-026 -4.8367e-026
node 4 3 1 1 -4.8367e-026 -4.8367e-026
node 5 1 1 1 -4.8367e-026 -4.8367e-026
node 6 2 1 1 -4.8367e-026 -4.8367e-026
node 7 2 1 3 -4.8367e-026 -4.8367e-026
node 8 1 0 2 -4.8367e-026 -4.8367e-026
gene 3 1 8 -1.62136 0 1 -1.62136 1
gene 3 2 8 2.158 0 2 2.158 1
gene 1 3 8 -0.0379841 0 3 -0.0379841 1
gene 2 4 8 -2.36728 0 4 -2.36728 1
gene 1 5 8 3.26387 0 5 3.26387 1
gene 3 6 8 0.766503 0 6 0.766503 1
gene 3 7 8 -0.808359 0 7 -0.808359 1
gene 3 8 8 -0.59067 1 14 -0.59067 1
genomeend 395

/* Organism #963 Fitness: 103 Error: 0 */
genomestart 963
trait 1 0.1 0 0 0 0 0 0 0 
trait 2 0.2 0 0 0 0 0 0 0 
trait 3 0.3 0 0 0 0 0 0 0 
node 1 3 1 1 -4.8367e-026 -4.8367e-026
node 2 2 1 1 -4.8367e-026 -4.8367e-026
node 3 2 1 1 -4.8367e-026 -4.8367e-026
node 4 3 1 1 -4.8367e-026 -4.8367e-026
node 5 1 1 1 -4.8367e-026 -4.8367e-026
node 6 2 1 1 -4.8367e-026 -4.8367e-026
node 7 2 1 3 -4.8367e-026 -4.8367e-026
node 8 1 0 2 -4.8367e-026 -4.8367e-026
gene 3 1 8 -1.62136 0 1 -1.62136 1
gene 3 2 8 2.158 0 2 2.158 1
gene 1 3 8 -0.0379841 0 3 -0.0379841 1
gene 2 4 8 -2.36728 0 4 -2.36728 1
gene 1 5 8 3.26387 0 5 3.26387 1
gene 3 6 8 0.766503 0 6 0.766503 1
gene 3 7 8 -0.808359 0 7 -0.808359 1
gene 3 8 8 -0.59067 1 14 -0.59067 1
genomeend 963

/* Organism #707 Fitness: 103 Error: 0 */
genomestart 707
trait 1 0.1 0 0 0 0 0 0 0 
trait 2 0.2 0 0 0 0 0 0 0 
trait 3 0.3 0 0 0 0 0 0 0 
node 1 3 1 1 -4.8367e-026 -4.8367e-026
node 2 2 1 1 -4.8367e-026 -4.8367e-026
node 3 2 1 1 -4.8367e-026 -4.8367e-026
node 4 3 1 1 -4.8367e-026 -4.8367e-026
node 5 1 1 1 -4.8367e-026 -4.8367e-026
node 6 2 1 1 -4.8367e-026 -4.8367e-026
node 7 2 1 3 -4.8367e-026 -4.8367e-026
node 8 1 0 2 -4.8367e-026 -4.8367e-026
gene 3 1 8 -1.62136 0 1 -1.62136 1
gene 3 2 8 2.158 0 2 2.158 1
gene 1 3 8 -0.0379841 0 3 -0.0379841 1
gene 2 4 8 -2.36728 0 4 -2.36728 1
gene 1 5 8 3.26387 0 5 3.26387 1
gene 3 6 8 0.766503 0 6 0.766503 1
gene 3 7 8 -0.808359 0 7 -0.808359 1
gene 3 8 8 -0.59067 1 14 -0.59067 1
genomeend 707

/* Organism #695 Fitness: 103 Error: 0 */
genomestart 695
trait 1 0.302595 0 0 0 0.0325594 0.296506 0 0 
trait 2 0.2 0 0 0 0 0 0 0 
trait 3 0.3 0 0 0 0 0 0 0 
node 1 3 1 1 -4.8367e-026 -4.8367e-026
node 2 2 1 1 -4.8367e-026 -4.8367e-026
node 3 2 1 1 -4.8367e-026 -4.8367e-026
node 4 3 1 1 -4.8367e-026 -4.8367e-026
node 5 1 1 1 -4.8367e-026 -4.8367e-026
node 6 2 1 1 -4.8367e-026 -4.8367e-026
node 7 2 1 3 -4.8367e-026 -4.8367e-026
node 8 1 0 2 -4.8367e-026 -4.8367e-026
gene 3 1 8 -1.10599 0 1 -1.10599 1
gene 3 2 8 1.33624 0 2 1.33624 1
gene 1 3 8 0.236701 0 3 0.236701 1
gene 2 4 8 -1.70954 0 4 -1.70954 1
gene 1 5 8 3.33298 0 5 3.33298 1
gene 3 6 8 1.56832 0 6 1.56832 1
gene 3 7 8 -0.442114 0 7 -0.442114 1
gene 3 8 8 -0.61911 1 14 -0.61911 1
genomeend 695

/* Organism #1340 Fitness: 102 Error: 0 */
genomestart 1340
trait 1 0.181038 0 0 0 0.0130238 0.118603 0 0 
trait 2 0.4 0 0 0.327662 0 0 0.223746 0.462615 
trait 3 0.3 0 0 0 0 0 0 0 
node 1 3 1 1 -4.8367e-026 -4.8367e-026
node 2 2 1 1 -4.8367e-026 -4.8367e-026
node 3 2 1 1 -4.8367e-026 -4.8367e-026
node 4 3 1 1 -4.8367e-026 -4.8367e-026
node 5 1 1 1 -4.8367e-026 -4.8367e-026
node 6 2 1 1 -4.8367e-026 -4.8367e-026
node 7 2 1 3 -4.8367e-026 -4.8367e-026
node 8 1 0 2 -4.8367e-026 -4.8367e-026
gene 3 1 8 -1.77985 0 1 -1.77985 1
gene 3 2 8 0.778821 0 2 0.778821 1
gene 1 3 8 0.723883 0 3 0.723883 1
gene 2 4 8 -2.56412 0 4 -2.56412 1
gene 1 5 8 3.42165 0 5 3.42165 1
gene 3 6 8 1.78581 0 6 1.78581 1
gene 3 7 8 -0.65569 0 7 -0.65569 1
gene 3 8 8 -0.325165 1 14 -0.325165 1
genomeend 1340

/* Organism #2460 Fitness: 102 Error: 0 */
genomestart 2460
trait 1 0.211427 0.0989677 0 0 0.0179077 0.163079 0.0150075 0 
trait 2 0.25 0.00293455 0.0347186 0.0522858 0 0 0 0 
trait 3 0.3 0 0 0 0 0 0 0 
node 1 3 1 1 -4.8367e-026 -4.8367e-026
node 2 2 1 1 -4.8367e-026 -4.8367e-026
node 3 2 1 1 -4.8367e-026 -4.8367e-026
node 4 3 1 1 -4.8367e-026 -4.8367e-026
node 5 1 1 1 -4.8367e-026 -4.8367e-026
node 6 2 1 1 -4.8367e-026 -4.8367e-026
node 7 2 1 3 -4.8367e-026 -4.8367e-026
node 8 1 0 2 -4.8367e-026 -4.8367e-026
gene 3 1 8 -1.63787 0 1 -1.63787 1
gene 3 2 8 0.430485 0 2 0.430485 1
gene 1 3 8 -0.310018 0 3 -0.310018 1
gene 2 4 8 -3.02595 0 4 -3.02595 1
gene 1 5 8 3.6855 0 5 3.6855 1
gene 3 6 8 1.54371 0 6 1.54371 1
gene 3 7 8 -0.0515467 0 7 -0.0515467 1
gene 3 8 8 -0.48451 1 14 -0.48451 1
genomeend 2460

/* Organism #2314 Fitness: 102 Error: 0 */
genomestart 2314
trait 1 0.181038 0 0 0 0.0130238 0.118603 0 0 
trait 2 0.2 0 0 0 0 0 0 0 
trait 3 0.3 0 0 0 0 0 0 0 
node 1 3 1 1 -4.8367e-026 -4.8367e-026
node 2 2 1 1 -4.8367e-026 -4.8367e-026
node 3 2 1 1 -4.8367e-026 -4.8367e-026
node 4 3 1 1 -4.8367e-026 -4.8367e-026
node 5 1 1 1 -4.8367e-026 -4.8367e-026
node 6 2 1 1 -4.8367e-026 -4.8367e-026
node 7 2 1 3 -4.8367e-026 -4.8367e-026
node 8 1 0 2 -4.8367e-026 -4.8367e-026
node 9 1 0 0 0.5 0
gene 3 1 8 -2.23352 0 1 -2.23352 1
gene 3 2 8 1.03266 0 2 1.03266 1
gene 1 3 8 0.442289 0 3 0.442289 0
gene 2 4 8 -2.65732 0 4 -2.65732 1
gene 1 5 8 3.49293 0 5 3.49293 1
gene 3 6 8 1.21116 0 6 1.21116 1
gene 3 7 8 0.000956565 0 7 0.000956565 1
gene 3 8 8 -0.823855 1 14 -0.823855 1
gene 1 3 9 1 0 17 0 1
gene 1 9 8 0.132687 0 18 0 1
genomeend 2314

/* Organism #982 Fitness: 101 Error: 0 */
genomestart 982
trait 1 0.221557 0 0 0 0.0195357 0.177904 0 0 
trait 2 0.2 0 0 0 0 0 0 0 
trait 3 0.3 0 0 0 0 0 0 0 
node 1 3 1 1 -4.8367e-026 -0.755004
node 2 2 1 1 -4.8367e-026 -4.8367e-026
node 3 2 1 1 0.357237 -0.393152
node 4 3 1 1 -0.0024781 -4.8367e-026
node 5 1 1 1 -4.8367e-026 0.346471
node 6 3 1 1 -0.26379 -0.693356
node 7 2 1 3 0.391809 -4.8367e-026
node 8 1 0 2 -4.8367e-026 0.777856
gene 3 1 8 -1.27986 0 1 -1.27986 1
gene 3 2 8 1.12521 0 2 1.12521 1
gene 1 3 8 -0.190764 0 3 -0.190764 1
gene 2 4 8 -2.19866 0 4 -2.19866 1
gene 1 5 8 3.45942 0 5 3.45942 1
gene 3 6 8 1.17482 0 6 1.17482 1
gene 3 7 8 -0.697907 0 7 -0.697907 1
gene 3 8 8 -0.28812 1 14 -0.28812 1
genomeend 982

/* Organism #814 Fitness: 100 Error: 0 */
genomestart 814
trait 1 0.12026 0 0 0 0.00325594 0.0296506 0 0 
trait 2 0.2 0 0 0 0 0 0 0 
trait 3 0.3 0 0 0 0 0 0 0 
node 1 3 1 1 -4.8367e-026 -4.8367e-026
node 2 2 1 1 -4.8367e-026 -4.8367e-026
node 3 2 1 1 -4.8367e-026 -4.8367e-026
node 4 3 1 1 -4.8367e-026 -4.8367e-026
node 5 1 1 1 -4.8367e-026 -4.8367e-026
node 6 2 1 1 -4.8367e-026 -4.8367e-026
node 7 2 1 3 -4.8367e-026 -4.8367e-026
node 8 1 0 2 -4.8367e-026 -4.8367e-026
gene 3 1 8 -1.41468 0 1 -1.41468 1
gene 3 2 8 1.47471 0 2 1.47471 1
gene 1 3 8 0.39777 0 3 0.39777 1
gene 2 4 8 -2.17292 0 4 -2.17292 1
gene 1 5 8 3.39519 0 5 3.39519 1
gene 3 6 8 1.67936 0 6 1.67936 1
gene 3 7 8 0.0248857 0 7 0.0248857 1
gene 3 8 8 -0.598972 1 14 -0.598972 1
genomeend 814

/* Organism #991 Fitness: 100 Error: 0 */
genomestart 991
trait 1 0.12026 0 0 0 0.00325594 0.0296506 0 0 
trait 2 0.2 0 0 0 0 0 0 0 
trait 3 0.3 0 0 0 0 0 0 0 
node 1 3 1 1 -4.8367e-026 -4.8367e-026
node 2 2 1 1 -4.8367e-026 -4.8367e-026
node 3 2 1 1 -4.8367e-026 -4.8367e-026
node 4 3 1 1 -4.8367e-026 -4.8367e-026
node 5 1 1 1 -4.8367e-026 -4.8367e-026
node 6 2 1 1 -4.8367e-026 -4.8367e-026
node 7 2 1 3 -4.8367e-026 -4.8367e-026
node 8 1 0 2 -4.8367e-026 -4.8367e-026
gene 3 1 8 -0.831755 0 1 -0.831755 1
gene 3 2 8 1.33624 0 2 1.33624 1
gene 1 3 8 0.401172 0 3 0.401172 1
gene 2 4 8 -1.61522 0 4 -1.61522 1
gene 1 5 8 3.4941 0 5 3.4941 1
gene 3 6 8 1.9183 0 6 1.9183 1
gene 3 7 8 0.0470519 0 7 0.0470519 1
gene 3 8 8 -0.466475 1 14 -0.466475 1
genomeend 991

/* Organism #2573 Fitness: 100 Error: 0 */
genomestart 2573
trait 1 0.160779 0 0 0 0.00976783 0.0889519 0 0 
trait 2 0.15 0.0117382 0.174459 0.124889 0.156758 0 0.0248878 0 
trait 3 0.3 0 0 0 0 0.0620212 0.0590228 0 
node 1 3 1 1 -4.8367e-026 -4.8367e-026
node 2 2 1 1 -4.8367e-026 -4.8367e-026
node 3 2 1 1 -4.8367e-026 -4.8367e-026
node 4 3 1 1 -4.8367e-026 -4.8367e-026
node 5 1 1 1 -4.8367e-026 -4.8367e-026
node 6 2 1 1 -4.8367e-026 -4.8367e-026
node 7 2 1 3 -4.8367e-026 -4.8367e-026
node 8 1 0 2 -4.8367e-026 -4.8367e-026
gene 3 1 8 -0.489129 0 1 -0.489129 1
gene 3 2 8 0.423703 0 2 0.423703 1
gene 1 3 8 -0.0275923 0 3 -0.0275923 1
gene 3 4 8 -1.23694 0 4 -1.23694 1
gene 1 5 8 1.57603 0 5 1.57603 1
gene 3 6 8 0.708878 0 6 0.708878 1
gene 3 7 8 -0.473487 0 7 -0.473487 1
gene 3 8 8 -0.120795 1 14 -0.120795 1
genomeend 2573

/* Organism #679 Fitness: 100 Error: 0 */
genomestart 679
trait 1 0.140519 0 0 0 0.00651189 0.0593013 0 0 
trait 2 0.2 0 0 0 0 0 0 0 
trait 3 0.3 0 0 0 0 0 0 0 
node 1 3 1 1 -4.8367e-026 -4.8367e-026
node 2 2 1 1 -4.8367e-026 -4.8367e-026
node 3 2 1 1 -4.8367e-026 -4.8367e-026
node 4 3 1 1 -4.8367e-026 -4.8367e-026
node 5 1 1 1 -4.8367e-026 -4.8367e-026
node 6 2 1 1 -4.8367e-026 -4.8367e-026
node 7 2 1 3 -4.8367e-026 -4.8367e-026
node 8 1 0 2 -4.8367e-026 -4.8367e-026
gene 3 1 8 -1.43385 0 1 -1.43385 1
gene 3 2 8 1.74712 0 2 1.74712 1
gene 1 3 8 0.154231 0 3 0.154231 1
gene 2 4 8 -2.03841 0 4 -2.03841 1
gene 1 5 8 3.29842 0 5 3.29842 1
gene 3 6 8 1.2181 0 6 1.2181 1
gene 3 7 8 -0.401938 0 7 -0.401938 1
gene 3 8 8 -0.61911 1 14 -0.61911 1
genomeend 679

/* Organism #550 Fitness: 98 Error: 0 */
genomestart 550
trait 1 0.1 0 0 0 0 0 0 0 
trait 2 0.2 0.0469527 0 0 0 0 0 0 
trait 3 0.3 0 0 0 0 0 0 0 
node 1 3 1 1 -4.8367e-026 -4.8367e-026
node 2 2 1 1 -4.8367e-026 -4.8367e-026
node 3 2 1 1 -4.8367e-026 -4.8367e-026
node 4 3 1 1 -4.8367e-026 -4.8367e-026
node 5 1 1 1 -4.8367e-026 -4.8367e-026
node 6 2 1 1 -4.8367e-026 -4.8367e-026
node 7 2 1 3 -4.8367e-026 -4.8367e-026
node 8 1 0 2 -4.8367e-026 -4.8367e-026
gene 3 1 8 -1.62136 0 1 -1.62136 1
gene 3 2 8 1.85199 0 2 1.85199 1
gene 1 3 8 0.236417 0 3 0.236417 1
gene 2 4 8 -1.90682 0 4 -1.90682 1
gene 1 5 8 3.37743 0 5 3.37743 1
gene 3 6 8 0.766503 0 6 0.766503 1
gene 3 7 8 -0.808359 0 7 -0.808359 1
gene 3 8 8 -0.516737 1 14 -0.516737 1
genomeend 550

/* Organism #489 Fitness: 98 Error: 0 */
genomestart 489
trait 1 0 0 0.655538 0 0.894375 0 0 0 
trait 2 0.2 0 0 0 0 0 0 0 
trait 3 0.3 0 0 0 0 0 0 0 
node 1 3 1 1 -4.8367e-026 -4.8367e-026
node 2 2 1 1 -4.8367e-026 -4.8367e-026
node 3 2 1 1 -4.8367e-026 -4.8367e-026
node 4 3 1 1 -4.8367e-026 -4.8367e-026
node 5 1 1 1 -4.8367e-026 -4.8367e-026
node 6 2 1 1 -4.8367e-026 -4.8367e-026
node 7 2 1 3 -4.8367e-026 -4.8367e-026
node 8 1 0 2 -4.8367e-026 -4.8367e-026
gene 3 1 8 -1.05762 0 1 -1.05762 1
gene 3 2 8 2.01928 0 2 2.01928 1
gene 1 3 8 -0.270663 0 3 -0.270663 1
gene 2 4 8 -2.74561 0 4 -2.74561 1
gene 1 5 8 3.77276 0 5 3.77276 1
gene 3 6 8 2.70278 0 6 2.70278 1
gene 3 7 8 -0.846286 0 7 -0.846286 1
gene 3 8 8 -0.177992 1 14 -0.177992 1
genomeend 489

/* Organism #575 Fitness: 98 Error: 0 */
genomestart 575
trait 1 0.1 0 0 0 0 0 0 0 
trait 2 0.2 0.0469527 0 0 0 0 0 0 
trait 3 0.3 0 0 0 0 0 0 0 
node 1 3 1 1 -4.8367e-026 -4.8367e-026
node 2 2 1 1 -4.8367e-026 -4.8367e-026
node 3 2 1 1 -4.8367e-026 -4.8367e-026
node 4 3 1 1 -4.8367e-026 -4.8367e-026
node 5 1 1 1 -4.8367e-026 -4.8367e-026
node 6 2 1 1 -4.8367e-026 -4.8367e-026
node 7 2 1 3 -4.8367e-026 -4.8367e-026
node 8 1 0 2 -4.8367e-026 -4.8367e-026
gene 3 1 8 -1.62136 0 1 -1.62136 1
gene 3 2 8 1.85199 0 2 1.85199 1
gene 1 3 8 0.236417 0 3 0.236417 1
gene 2 4 8 -1.90682 0 4 -1.90682 1
gene 1 5 8 3.37743 0 5 3.37743 1
gene 3 6 8 0.766503 0 6 0.766503 1
gene 3 7 8 -0.808359 0 7 -0.808359 1
gene 3 8 8 -0.516737 1 14 -0.516737 1
genomeend 575

/* Organism #655 Fitness: 98 Error: 0 */
genomestart 655
trait 1 0.140519 0 0 0 0.00651189 0.0593013 0 0 
trait 2 0.2 0.0117382 0 0 0 0 0 0 
trait 3 0.3 0 0 0 0 0 0 0 
node 1 3 1 1 -4.8367e-026 -4.8367e-026
node 2 2 1 1 -4.8367e-026 -4.8367e-026
node 3 2 1 1 -4.8367e-026 -4.8367e-026
node 4 3 1 1 -4.8367e-026 -4.8367e-026
node 5 1 1 1 -4.8367e-026 -4.8367e-026
node 6 2 1 1 -4.8367e-026 -4.8367e-026
node 7 2 1 3 -4.8367e-026 -4.8367e-026
node 8 1 0 2 -4.8367e-026 -4.8367e-026
gene 3 1 8 -1.51203 0 1 -1.51203 1
gene 3 2 8 1.33624 0 2 1.33624 1
gene 1 3 8 0.554682 0 3 0.554682 1
gene 2 4 8 -1.70954 0 4 -1.70954 1
gene 1 5 8 3.33298 0 5 3.33298 1
gene 3 6 8 1.82704 0 6 1.82704 1
gene 3 7 8 0.00448241 0 7 0.00448241 1
gene 3 8 8 -0.640843 1 14 -0.640843 1
genomeend 655

/* Organism #2578 Fitness: 98 Error: 0 */
genomestart 2578
trait 1 0.11013 0 0 0 0.00162797 0.0148253 0 0 
trait 2 0.2 0.0117382 0 0 0 0 0 0 
trait 3 0.3 0 0 0 0 0 0 0 
node 1 3 1 1 -4.8367e-026 -4.8367e-026
node 2 2 1 1 -4.8367e-026 -4.8367e-026
node 3 2 1 1 -4.8367e-026 -4.8367e-026
node 4 3 1 1 -4.8367e-026 -4.8367e-026
node 5 1 1 1 -4.8367e-026 -4.8367e-026
node 6 2 1 1 -4.8367e-026 -4.8367e-026
node 7 2 1 3 -4.8367e-026 -4.8367e-026
node 8 1 0 2 -4.8367e-026 -4.8367e-026
gene 3 1 8 -1.23946 0 1 -1.23946 1
gene 3 2 8 1.56625 0 2 1.56625 1
gene 1 3 8 0.387515 0 3 0.387515 1
gene 2 4 8 -1.87175 0 4 -1.87175 1
gene 1 5 8 3.43876 0 5 3.43876 1
gene 3 6 8 1.76775 0 6 1.76775 1
gene 3 7 8 0.0220029 0 7 0.0220029 1
gene 3 8 8 -0.543303 1 14 -0.543303 1
genomeend 2578

/* Organism #729 Fitness: 98 Error: 0 */
genomestart 729
trait 1 0.11013 0 0 0 0.00162797 0.0148253 0 0 
trait 2 0.2 0.0117382 0 0 0 0 0 0 
trait 3 0.3 0 0 0 0 0 0 0 
node 1 3 1 1 -4.8367e-026 -4.8367e-026
node 2 2 1 1 -4.8367e-026 -4.8367e-026
node 3 2 1 1 -4.8367e-026 -4.8367e-026
node 4 3 1 1 -4.8367e-026 -4.8367e-026
node 5 1 1 1 -4.8367e-026 -4.8367e-026
node 6 2 1 1 -4.8367e-026 -4.8367e-026
node 7 2 1 3 -4.8367e-026 -4.8367e-026
node 8 1 0 2 -4.8367e-026 -4.8367e-026
gene 3 1 8 -1.23946 0 1 -1.23946 1
gene 3 2 8 1.56625 0 2 1.56625 1
gene 1 3 8 0.387515 0 3 0.387515 1
gene 2 4 8 -1.87175 0 4 -1.87175 1
gene 1 5 8 3.43876 0 5 3.43876 1
gene 3 6 8 1.76775 0 6 1.76775 1
gene 3 7 8 0.0220029 0 7 0.0220029 1
gene 3 8 8 -0.543303 1 14 -0.543303 1
genomeend 729

/* Organism #820 Fitness: 96 Error: 0 */
genomestart 820
trait 1 0.12026 0.197935 0 0 0.00325594 0.0296506 0.030015 0 
trait 2 0.3 0.00586909 0.0694372 0.104572 0 0 0 0 
trait 3 0.3 0 0 0 0 0 0 0 
node 1 3 1 1 -4.8367e-026 -4.8367e-026
node 2 2 1 1 -4.8367e-026 -4.8367e-026
node 3 2 1 1 -4.8367e-026 -4.8367e-026
node 4 3 1 1 -4.8367e-026 -4.8367e-026
node 5 1 1 1 -4.8367e-026 -4.8367e-026
node 6 2 1 1 -4.8367e-026 -4.8367e-026
node 7 2 1 3 -4.8367e-026 -4.8367e-026
node 8 1 0 2 -4.8367e-026 -4.8367e-026
gene 3 1 8 -1.1063 0 1 -1.1063 1
gene 3 2 8 1.40556 0 2 1.40556 1
gene 1 3 8 0.231014 0 3 0.231014 1
gene 2 4 8 -2.30733 0 4 -2.30733 1
gene 1 5 8 3.50842 0 5 3.50842 1
gene 3 6 8 1.25253 0 6 1.25253 1
gene 3 7 8 -0.281809 0 7 -0.281809 1
gene 3 8 8 -0.627337 1 14 -0.627337 1
genomeend 820

/* Organism #1256 Fitness: 96 Error: 0 */
genomestart 1256
trait 1 0.1 0 0 0 0 0 0 0 
trait 2 0.2 0 0 0 0 0 0 0 
trait 3 0.3 0 0 0 0 0 0 0 
node 1 2 1 1 -4.8367e-026 -4.8367e-026
node 2 2 1 1 -4.8367e-026 -4.8367e-026
node 3 3 1 1 -4.8367e-026 -4.8367e-026
node 4 3 1 1 -4.8367e-026 -4.8367e-026
node 5 3 1 1 -4.8367e-026 -4.8367e-026
node 6 2 1 1 -4.8367e-026 -4.8367e-026
node 7 2 1 3 -4.8367e-026 -4.8367e-026
node 8 2 0 2 -4.8367e-026 -4.8367e-026
gene 1 1 8 0.0530412 0 1 0.0530412 1
gene 2 2 8 0.867763 0 2 0.867763 1
gene 2 3 8 -0.911313 0 3 -0.911313 1
gene 3 4 8 -1.84826 0 4 -1.84826 1
gene 3 5 8 0.505387 0 5 0.505387 1
gene 2 6 8 1.27668 0 6 1.27668 1
gene 2 7 8 -0.243171 0 7 -0.243171 1
genomeend 1256

/* Organism #3248 Fitness: 95 Error: 0 */
genomestart 3248
trait 1 0.181038 0 0 0 0.0130238 0.118603 0 0 
trait 2 0.2 0 0 0 0 0 0 0 
trait 3 0.3 0 0 0 0 0 0 0 
node 1 3 1 1 -4.8367e-026 -4.8367e-026
node 2 2 1 1 -4.8367e-026 -4.8367e-026
node 3 2 1 1 -4.8367e-026 -4.8367e-026
node 4 3 1 1 -4.8367e-026 -4.8367e-026
node 5 1 1 1 -4.8367e-026 -4.8367e-026
node 6 2 1 1 -4.8367e-026 -4.8367e-026
node 7 2 1 3 -4.8367e-026 -4.8367e-026
node 8 1 0 2 -4.8367e-026 -4.8367e-026
gene 3 1 8 -1.63309 0 1 -1.63309 1
gene 3 2 8 1.80016 0 2 1.80016 1
gene 1 3 8 0.140526 0 3 0.140526 1
gene 2 4 8 -2.21912 0 4 -2.21912 1
gene 1 5 8 3.31969 0 5 3.31969 1
gene 3 6 8 1.07812 0 6 1.07812 1
gene 3 7 8 -0.531758 0 7 -0.531758 1
gene 3 8 8 -0.616717 1 14 -0.616717 1
genomeend 3248

/* Organism #1920 Fitness: 95 Error: 0 */
genomestart 1920
trait 1 0.257011 0 0 0 0.0252336 0.229792 0 0 
trait 2 0.2 0 0 0 0 0 0 0 
trait 3 0.3 0 0 0 0 0 0 0 
node 1 3 1 1 -4.8367e-026 -4.8367e-026
node 2 2 1 1 -4.8367e-026 -4.8367e-026
node 3 2 1 1 -4.8367e-026 -4.8367e-026
node 4 3 1 1 -4.8367e-026 -4.8367e-026
node 5 1 1 1 -4.8367e-026 -4.8367e-026
node 6 2 1 1 -4.8367e-026 -4.8367e-026
node 7 2 1 3 -4.8367e-026 -4.8367e-026
node 8 1 0 2 -4.8367e-026 -4.8367e-026
gene 3 1 8 -0.954399 0 1 -0.954399 1
gene 3 2 8 1.18445 0 2 1.18445 1
gene 1 3 8 0.373908 0 3 0.373908 1
gene 2 4 8 -2.40984 0 4 -2.40984 1
gene 1 5 8 3.68888 0 5 3.68888 1
gene 3 6 8 0.904599 0 6 0.904599 1
gene 3 7 8 -0.657526 0 7 -0.657526 1
gene 3 8 8 -0.613191 1 14 -0.613191 1
genomeend 1920

/* Organism #2511 Fitness: 95 Error: 0 */
genomestart 2511
trait 1 0.150649 0 0 0 0.00813986 0.0741266 0 0 
trait 2 0.2 0 0 0 0 0 0 0 
trait 3 0.3 0 0 0 0 0 0 0 
node 1 3 1 1 -4.8367e-026 -4.8367e-026
node 2 2 1 1 -4.8367e-026 -4.8367e-026
node 3 2 1 1 -4.8367e-026 -4.8367e-026
node 4 3 1 1 -4.8367e-026 -4.8367e-026
node 5 1 1 1 -4.8367e-026 -4.8367e-026
node 6 2 1 1 -4.8367e-026 -4.8367e-026
node 7 2 1 3 -4.8367e-026 -4.8367e-026
node 8 1 0 2 -4.8367e-026 -4.8367e-026
gene 3 1 8 -0.736275 0 1 -0.736275 1
gene 3 2 8 1.45936 0 2 1.45936 1
gene 1 3 8 -0.0778799 0 3 -0.0778799 1
gene 2 4 8 -2.95053 0 4 -2.95053 1
gene 1 5 8 0.855373 0 5 0.855373 1
gene 3 6 8 1.23042 0 6 1.23042 1
gene 3 7 8 -0.429823 0 7 -0.429823 1
gene 3 8 8 -0.051006 1 14 -0.051006 1
genomeend 2511

/* Organism #983 Fitness: 94 Error: 0 */
genomestart 983
trait 1 0.181038 0 0 0 0.0130238 0.118603 0 0 
trait 2 0.2 0.0469527 0 0 0 0 0 0 
trait 3 0.3 0 0 0 0 0 0 0 
node 1 3 1 1 -4.8367e-026 -4.8367e-026
node 2 2 1 1 -4.8367e-026 -4.8367e-026
node 3 2 1 1 -4.8367e-026 -4.8367e-026
node 4 3 1 1 -4.8367e-026 -4.8367e-026
node 5 1 1 1 -4.8367e-026 -4.8367e-026
node 6 2 1 1 -4.8367e-026 -4.8367e-026
node 7 2 1 3 -4.8367e-026 -4.8367e-026
node 8 1 0 2 -4.8367e-026 -4.8367e-026
gene 3 1 8 -1.83854 0 1 -1.83854 1
gene 3 2 8 1.64632 0 2 1.64632 1
gene 1 3 8 -1.48117 0 3 -1.48117 1
gene 2 4 8 -1.98682 0 4 -1.98682 1
gene 1 5 8 3.01761 0 5 3.01761 1
gene 3 6 8 0.626083 0 6 0.626083 1
gene 3 7 8 -0.386631 0 7 -0.386631 1
gene 3 8 8 -0.328236 1 14 -0.328236 1
genomeend 983

/* Organism #2020 Fitness: 94 Error: 0 */
genomestart 2020
trait 1 0.254479 0 0 0 0.0248266 0.226086 0 0 
trait 2 0.2 0.01614 0 0 0 0 0 0 
trait 3 0.3 0 0 0 0 0 0 0 
node 1 3 1 1 -4.8367e-026 -4.8367e-026
node 2 2 1 1 -4.8367e-026 -4.8367e-026
node 3 2 1 1 -4.8367e-026 -4.8367e-026
node 4 3 1 1 -4.8367e-026 -4.8367e-026
node 5 1 1 1 -4.8367e-026 -4.8367e-026
node 6 2 1 1 -4.8367e-026 -4.8367e-026
node 7 2 1 3 -4.8367e-026 -4.8367e-026
node 8 1 0 2 -4.8367e-026 -4.8367e-026
gene 3 1 8 -1.16798 0 1 -1.16798 1
gene 3 2 8 1.98836 0 2 1.98836 1
gene 1 3 8 0.166185 0 3 0.166185 1
gene 2 4 8 -1.84162 0 4 -1.84162 1
gene 1 5 8 3.41842 0 5 3.41842 1
gene 3 6 8 1.37157 0 6 1.37157 1
gene 3 7 8 -0.57001 0 7 -0.57001 1
gene 3 8 8 -0.443655 1 14 -0.443655 1
genomeend 2020

/* Organism #500 Fitness: 94 Error: 0 */
genomestart 500
trait 1 0.1 0 0 0 0 0 0 0 
trait 2 0.2 0.0469527 0 0 0 0 0 0 
trait 3 0.3 0 0 0 0 0 0 0 
node 1 3 1 1 -4.8367e-026 0.663301
node 2 2 1 1 -0.0475723 -4.8367e-026
node 3 2 1 1 -4.8367e-026 0.112308
node 4 3 1 1 0.283908 -0.760521
node 5 1 1 1 -4.8367e-026 -0.387854
node 6 2 1 1 -0.0986236 0.0493667
node 7 2 1 3 -4.8367e-026 -4.8367e-026
node 8 1 0 2 -4.8367e-026 0.608368
gene 3 1 8 -1.32494 0 1 -1.32494 1
gene 3 2 8 1.73368 0 2 1.73368 1
gene 1 3 8 -0.118784 0 3 -0.118784 1
gene 2 4 8 -2.33132 0 4 -2.33132 1
gene 1 5 8 3.30576 0 5 3.30576 1
gene 3 6 8 1.88633 0 6 1.88633 1
gene 3 7 8 -0.075869 0 7 -0.075869 1
gene 3 8 8 -0.466475 1 14 -0.466475 1
genomeend 500

/* Organism #2298 Fitness: 93 Error: 0 */
genomestart 2298
trait 1 0.181038 0 0 0 0.0130238 0.118603 0 0 
trait 2 0.2 0 0 0 0 0 0 0 
trait 3 0.3 0 0 0 0 0 0 0 
node 1 3 1 1 -4.8367e-026 -4.8367e-026
node 2 2 1 1 -4.8367e-026 -4.8367e-026
node 3 2 1 1 -4.8367e-026 -4.8367e-026
node 4 3 1 1 -4.8367e-026 -4.8367e-026
node 5 1 1 1 -4.8367e-026 -4.8367e-026
node 6 2 1 1 -4.8367e-026 -4.8367e-026
node 7 2 1 3 -4.8367e-026 -4.8367e-026
node 8 1 0 2 -4.8367e-026 -4.8367e-026
gene 3 1 8 -2.23352 0 1 -2.23352 1
gene 3 2 8 1.03266 0 2 1.03266 1
gene 1 3 8 0.442289 0 3 0.442289 1
gene 2 4 8 -2.65732 0 4 -2.65732 1
gene 1 5 8 3.49293 0 5 3.49293 1
gene 3 6 8 1.21116 0 6 1.21116 1
gene 3 7 8 0.000956565 0 7 0.000956565 1
gene 3 8 8 -0.823855 1 14 -0.823855 1
genomeend 2298

/* Organism #976 Fitness: 93 Error: 0 */
genomestart 976
trait 1 0.181038 0 0 0 0.0130238 0.118603 0 0 
trait 2 0.2 0 0 0 0 0 0 0 
trait 3 0.3 0 0 0 0 0 0 0 
node 1 3 1 1 -4.8367e-026 -4.8367e-026
node 2 2 1 1 -4.8367e-026 -4.8367e-026
node 3 2 1 1 -4.8367e-026 -4.8367e-026
node 4 3 1 1 -4.8367e-026 -4.8367e-026
node 5 1 1 1 -4.8367e-026 -4.8367e-026
node 6 2 1 1 -4.8367e-026 -4.8367e-026
node 7 2 1 3 -4.8367e-026 -4.8367e-026
node 8 1 0 2 -4.8367e-026 -4.8367e-026
gene 3 1 8 -2.23352 0 1 -2.23352 1
gene 3 2 8 1.03266 0 2 1.03266 1
gene 1 3 8 0.442289 0 3 0.442289 1
gene 2 4 8 -2.65732 0 4 -2.65732 1
gene 1 5 8 3.49293 0 5 3.49293 1
gene 3 6 8 1.21116 0 6 1.21116 1
gene 3 7 8 0.000956565 0 7 0.000956565 1
gene 3 8 8 -0.823855 1 14 -0.823855 1
genomeend 976

/* Species #2 : (Size 33) (AF 0) (Age 1)  */


/* Organism #1443 Fitness: 89 Error: 0 */
genomestart 1443
trait 1 0.090519 0 0.327769 0 0.4537 0.0593013 0 0 
trait 2 0.6 0 0.277749 0.418287 0 0 0 0 
trait 3 0.3 0 0 0 0 0 0 0 
node 1 3 1 1 -4.8367e-026 -4.8367e-026
node 2 2 1 1 -4.8367e-026 -4.8367e-026
node 3 2 1 1 -4.8367e-026 -4.8367e-026
node 4 3 1 1 -4.8367e-026 -4.8367e-026
node 5 1 1 1 -4.8367e-026 -4.8367e-026
node 6 2 1 1 -4.8367e-026 -4.8367e-026
node 7 2 1 3 -4.8367e-026 -4.8367e-026
node 8 1 0 2 -4.8367e-026 -4.8367e-026
gene 3 1 8 -1.66088 0 1 -1.66088 1
gene 3 2 8 -1.92291 0 2 -1.92291 1
gene 1 3 8 -0.739067 0 3 -0.739067 1
gene 2 4 8 -2.86526 0 4 -2.86526 1
gene 1 5 8 5.313 0 5 5.313 1
gene 3 6 8 3.45302 0 6 3.45302 1
gene 2 7 8 -0.468907 0 7 -0.468907 1
gene 3 8 8 0.326487 1 14 0.326487 1
genomeend 1443

/* Organism #1842 Fitness: 88 Error: 0 */
genomestart 1842
trait 1 0.090519 0 0.327769 0 0.4537 0.0593013 0 0 
trait 2 0.6 0 0.277749 0.418287 0 0 0 0 
trait 3 0.3 0 0 0 0 0 0 0 
node 1 3 1 1 -4.8367e-026 -4.8367e-026
node 2 2 1 1 -4.8367e-026 -4.8367e-026
node 3 2 1 1 -4.8367e-026 -4.8367e-026
node 4 3 1 1 -4.8367e-026 -4.8367e-026
node 5 1 1 1 -4.8367e-026 -4.8367e-026
node 6 2 1 1 -4.8367e-026 -4.8367e-026
node 7 2 1 3 -4.8367e-026 -4.8367e-026
node 8 1 0 2 -4.8367e-026 -4.8367e-026
gene 3 1 8 -2.18687 0 1 -2.18687 1
gene 3 2 8 -1.62658 0 2 -1.62658 1
gene 1 3 8 0.65981 0 3 0.65981 1
gene 2 4 8 -2.6191 0 4 -2.6191 1
gene 1 5 8 4.87058 0 5 4.87058 1
gene 3 6 8 3.14579 0 6 3.14579 1
gene 2 7 8 -0.898577 0 7 -0.898577 1
gene 3 8 8 0.354229 1 14 0.354229 1
genomeend 1842

/* Organism #3074 Fitness: 86 Error: 0 */
genomestart 3074
trait 1 0.0702595 0 0.327769 0 0.450444 0.0296506 0 0 
trait 2 0.396704 0 0.138874 0.209143 0 0 0.364849 0.374203 
trait 3 0.3 0 0 0 0 0 0 0 
node 1 3 1 1 -4.8367e-026 -4.8367e-026
node 2 2 1 1 -4.8367e-026 -4.8367e-026
node 3 2 1 1 -4.8367e-026 -4.8367e-026
node 4 3 1 1 -4.8367e-026 -4.8367e-026
node 5 1 1 1 -4.8367e-026 -4.8367e-026
node 6 2 1 1 -4.8367e-026 -4.8367e-026
node 7 2 1 3 -4.8367e-026 -4.8367e-026
node 8 1 0 2 -4.8367e-026 -4.8367e-026
gene 3 1 8 0.546675 0 1 0.546675 1
gene 3 2 8 -0.969726 0 2 -0.969726 1
gene 1 3 8 1.07053 0 3 1.07053 1
gene 2 4 8 -3.48334 0 4 -3.48334 1
gene 1 5 8 4.66035 0 5 4.66035 1
gene 3 6 8 3.25086 0 6 3.25086 1
gene 3 7 8 -0.236224 0 7 -0.236224 1
gene 3 8 8 -0.353725 1 14 -0.353725 1
genomeend 3074

/* Organism #3108 Fitness: 85 Error: 0 */
genomestart 3108
trait 1 0.090519 0 0.327769 0 0.4537 0.0593013 0 0 
trait 2 0.6 0 0.277749 0.418287 0 0 0 0 
trait 3 0.3 0 0 0 0 0 0 0 
node 1 3 1 1 -4.8367e-026 -4.8367e-026
node 2 2 1 1 -4.8367e-026 -4.8367e-026
node 3 2 1 1 -4.8367e-026 -4.8367e-026
node 4 3 1 1 -4.8367e-026 -4.8367e-026
node 5 1 1 1 -4.8367e-026 -4.8367e-026
node 6 2 1 1 -4.8367e-026 -4.8367e-026
node 7 2 1 3 -4.8367e-026 -4.8367e-026
node 8 1 0 2 -4.8367e-026 -4.8367e-026
gene 3 1 8 -1.02937 0 1 -1.02937 1
gene 3 2 8 -1.67631 0 2 -1.67631 1
gene 1 3 8 0.669073 0 3 0.669073 1
gene 2 4 8 -4.34707 0 4 -4.34707 1
gene 1 5 8 4.39032 0 5 4.39032 1
gene 3 6 8 3.00859 0 6 3.00859 1
gene 2 7 8 -0.716941 0 7 -0.716941 1
gene 3 8 8 0.084079 1 14 0.084079 1
genomeend 3108

/* Organism #2679 Fitness: 82 Error: 0 */
genomestart 2679
trait 1 0.090519 0 0.327769 0 0.4537 0.0593013 0 0 
trait 2 0.6 0 0.277749 0.418287 0 0 0 0 
trait 3 0.3 0 0 0 0 0 0 0 
node 1 3 1 1 -4.8367e-026 -4.8367e-026
node 2 2 1 1 -4.8367e-026 -4.8367e-026
node 3 2 1 1 -4.8367e-026 -4.8367e-026
node 4 3 1 1 -4.8367e-026 -4.8367e-026
node 5 1 1 1 -4.8367e-026 -4.8367e-026
node 6 2 1 1 -4.8367e-026 -4.8367e-026
node 7 2 1 3 -4.8367e-026 -4.8367e-026
node 8 1 0 2 -4.8367e-026 -4.8367e-026
gene 3 1 8 -1.26667 0 1 -1.26667 1
gene 3 2 8 -1.8298 0 2 -1.8298 1
gene 1 3 8 0.727287 0 3 0.727287 1
gene 2 4 8 -4.34117 0 4 -4.34117 1
gene 1 5 8 4.48467 0 5 4.48467 1
gene 3 6 8 2.81744 0 6 2.81744 1
gene 2 7 8 -0.757286 0 7 -0.757286 1
gene 3 8 8 0.223426 1 14 0.223426 1
genomeend 2679

/* Organism #3344 Fitness: 77 Error: 0 */
genomestart 3344
trait 1 0.090519 0 0.327769 0 0.4537 0.0593013 0 0 
trait 2 0.6 0 0.277749 0.418287 0 0 0 0 
trait 3 0.3 0 0 0 0 0 0 0 
node 1 3 1 1 -4.8367e-026 -4.8367e-026
node 2 2 1 1 -4.8367e-026 -4.8367e-026
node 3 2 1 1 -4.8367e-026 -4.8367e-026
node 4 3 1 1 -4.8367e-026 -4.8367e-026
node 5 1 1 1 -4.8367e-026 -4.8367e-026
node 6 2 1 1 -4.8367e-026 -4.8367e-026
node 7 2 1 3 -4.8367e-026 -4.8367e-026
node 8 1 0 2 -4.8367e-026 -4.8367e-026
gene 3 1 8 -1.22648 0 1 -1.22648 1
gene 3 2 8 -1.45283 0 2 -1.45283 1
gene 1 3 8 -0.423276 0 3 -0.423276 1
gene 2 4 8 -3.60912 0 4 -3.60912 1
gene 1 5 8 4.80449 0 5 4.80449 1
gene 3 6 8 3.32638 0 6 3.32638 1
gene 2 7 8 -0.572751 0 7 -0.572751 1
gene 3 8 8 0.224296 1 14 0.224296 1
genomeend 3344

/* Organism #1944 Fitness: 76 Error: 0 */
genomestart 1944
trait 1 0.090519 0 0.327769 0 0.4537 0.0593013 0 0 
trait 2 0.6 0 0.277749 0.418287 0 0 0 0 
trait 3 0.3 0 0 0 0 0 0 0 
node 1 3 1 1 -4.8367e-026 -4.8367e-026
node 2 2 1 1 -4.8367e-026 -4.8367e-026
node 3 2 1 1 -4.8367e-026 -4.8367e-026
node 4 3 1 1 -4.8367e-026 -4.8367e-026
node 5 1 1 1 -4.8367e-026 -4.8367e-026
node 6 2 1 1 -4.8367e-026 -4.8367e-026
node 7 2 1 3 -4.8367e-026 -4.8367e-026
node 8 1 0 2 -4.8367e-026 -4.8367e-026
gene 3 1 8 -0.792077 0 1 -0.792077 1
gene 3 2 8 -0.982757 0 2 -0.982757 1
gene 1 3 8 -0.107486 0 3 -0.107486 1
gene 2 4 8 -4.35298 0 4 -4.35298 1
gene 1 5 8 4.29597 0 5 4.29597 1
gene 3 6 8 3.19975 0 6 3.19975 1
gene 2 7 8 -0.676595 0 7 -0.676595 1
gene 3 8 8 0.122105 1 14 0.122105 1
genomeend 1944

/* Organism #2728 Fitness: 75 Error: 0 */
genomestart 2728
trait 1 0.090519 0 0.327769 0 0.4537 0.0593013 0 0 
trait 2 0.6 0 0.277749 0.418287 0 0 0 0 
trait 3 0.3 0 0 0 0 0 0 0 
node 1 3 1 1 -4.8367e-026 -4.8367e-026
node 2 2 1 1 -4.8367e-026 -4.8367e-026
node 3 2 1 1 -4.8367e-026 -4.8367e-026
node 4 3 1 1 -4.8367e-026 -4.8367e-026
node 5 1 1 1 -4.8367e-026 -4.8367e-026
node 6 2 1 1 -4.8367e-026 -4.8367e-026
node 7 2 1 3 -4.8367e-026 -4.8367e-026
node 8 1 0 2 -4.8367e-026 -4.8367e-026
gene 3 1 8 -0.792077 0 1 -0.792077 1
gene 3 2 8 -1.52281 0 2 -1.52281 1
gene 1 3 8 0.610858 0 3 0.610858 1
gene 2 4 8 -4.35298 0 4 -4.35298 1
gene 1 5 8 4.29597 0 5 4.29597 1
gene 3 6 8 3.19975 0 6 3.19975 1
gene 2 7 8 -0.676595 0 7 -0.676595 1
gene 3 8 8 -0.0552685 1 14 -0.0552685 1
genomeend 2728

/* Organism #1785 Fitness: 75 Error: 0 */
genomestart 1785
trait 1 0.090519 0 0.327769 0 0.4537 0.0593013 0 0 
trait 2 0.6 0 0.277749 0.418287 0 0 0 0 
trait 3 0.3 0 0 0 0 0 0 0 
node 1 3 1 1 -4.8367e-026 -4.8367e-026
node 2 2 1 1 -4.8367e-026 -4.8367e-026
node 3 2 1 1 -4.8367e-026 -4.8367e-026
node 4 3 1 1 -4.8367e-026 -4.8367e-026
node 5 1 1 1 -4.8367e-026 -4.8367e-026
node 6 2 1 1 -4.8367e-026 -4.8367e-026
node 7 2 1 3 -4.8367e-026 -4.8367e-026
node 8 1 0 2 -4.8367e-026 -4.8367e-026
gene 3 1 8 -0.792077 0 1 -0.792077 1
gene 3 2 8 -1.52281 0 2 -1.52281 1
gene 1 3 8 0.610858 0 3 0.610858 1
gene 2 4 8 -4.35298 0 4 -4.35298 1
gene 1 5 8 4.29597 0 5 4.29597 1
gene 3 6 8 3.19975 0 6 3.19975 1
gene 2 7 8 -0.676595 0 7 -0.676595 1
gene 3 8 8 -0.0552685 1 14 -0.0552685 1
genomeend 1785

/* Organism #2377 Fitness: 75 Error: 0 */
genomestart 2377
trait 1 0.090519 0 0.327769 0 0.4537 0.0593013 0 0 
trait 2 0.6 0 0.277749 0.418287 0 0 0 0 
trait 3 0.3 0 0 0 0 0 0 0 
node 1 3 1 1 -4.8367e-026 -4.8367e-026
node 2 2 1 1 -4.8367e-026 -4.8367e-026
node 3 2 1 1 -4.8367e-026 -4.8367e-026
node 4 3 1 1 -4.8367e-026 -4.8367e-026
node 5 1 1 1 -4.8367e-026 -4.8367e-026
node 6 2 1 1 -4.8367e-026 -4.8367e-026
node 7 2 1 3 -4.8367e-026 -4.8367e-026
node 8 1 0 2 -4.8367e-026 -4.8367e-026
gene 3 1 8 -0.792077 0 1 -0.792077 1
gene 3 2 8 -1.52281 0 2 -1.52281 1
gene 1 3 8 0.610858 0 3 0.610858 1
gene 2 4 8 -4.35298 0 4 -4.35298 1
gene 1 5 8 4.29597 0 5 4.29597 1
gene 3 6 8 3.19975 0 6 3.19975 1
gene 2 7 8 -0.676595 0 7 -0.676595 1
gene 3 8 8 -0.0552685 1 14 -0.0552685 1
genomeend 2377

/* Organism #2502 Fitness: 75 Error: 0 */
genomestart 2502
trait 1 0.090519 0 0.327769 0 0.4537 0.0593013 0 0 
trait 2 0.6 0 0.277749 0.418287 0 0 0 0 
trait 3 0.3 0 0 0 0 0 0 0 
node 1 3 1 1 -4.8367e-026 -4.8367e-026
node 2 2 1 1 -4.8367e-026 -4.8367e-026
node 3 2 1 1 -4.8367e-026 -4.8367e-026
node 4 3 1 1 -4.8367e-026 -4.8367e-026
node 5 1 1 1 -4.8367e-026 -4.8367e-026
node 6 2 1 1 -4.8367e-026 -4.8367e-026
node 7 2 1 3 -4.8367e-026 -4.8367e-026
node 8 1 0 2 -4.8367e-026 -4.8367e-026
gene 3 1 8 -0.792077 0 1 -0.792077 1
gene 3 2 8 -1.52281 0 2 -1.52281 1
gene 1 3 8 0.610858 0 3 0.610858 1
gene 2 4 8 -4.35298 0 4 -4.35298 1
gene 1 5 8 4.29597 0 5 4.29597 1
gene 3 6 8 3.19975 0 6 3.19975 1
gene 2 7 8 -0.676595 0 7 -0.676595 1
gene 3 8 8 -0.0552685 1 14 -0.0552685 1
genomeend 2502

/* Organism #2614 Fitness: 75 Error: 0 */
genomestart 2614
trait 1 0.090519 0 0.327769 0 0.4537 0.0593013 0 0 
trait 2 0.6 0 0.277749 0.418287 0 0 0 0 
trait 3 0.3 0 0 0 0 0 0 0 
node 1 3 1 1 -4.8367e-026 -4.8367e-026
node 2 2 1 1 -4.8367e-026 -4.8367e-026
node 3 2 1 1 -4.8367e-026 -4.8367e-026
node 4 3 1 1 -4.8367e-026 -4.8367e-026
node 5 1 1 1 -4.8367e-026 -4.8367e-026
node 6 2 1 1 -4.8367e-026 -4.8367e-026
node 7 2 1 3 -4.8367e-026 -4.8367e-026
node 8 1 0 2 -4.8367e-026 -4.8367e-026
gene 3 1 8 -0.792077 0 1 -0.792077 1
gene 3 2 8 -1.52281 0 2 -1.52281 1
gene 1 3 8 0.610858 0 3 0.610858 1
gene 2 4 8 -4.35298 0 4 -4.35298 1
gene 1 5 8 4.29597 0 5 4.29597 1
gene 3 6 8 3.19975 0 6 3.19975 1
gene 2 7 8 -0.676595 0 7 -0.676595 1
gene 3 8 8 -0.0552685 1 14 -0.0552685 1
genomeend 2614

/* Organism #1939 Fitness: 75 Error: 0 */
genomestart 1939
trait 1 0.090519 0 0.327769 0 0.4537 0.0593013 0 0 
trait 2 0.6 0 0.277749 0.418287 0 0 0 0 
trait 3 0.3 0 0 0 0 0 0 0 
node 1 3 1 1 -4.8367e-026 -4.8367e-026
node 2 2 1 1 -4.8367e-026 -4.8367e-026
node 3 2 1 1 -4.8367e-026 -4.8367e-026
node 4 3 1 1 -4.8367e-026 -4.8367e-026
node 5 1 1 1 -4.8367e-026 -4.8367e-026
node 6 2 1 1 -4.8367e-026 -4.8367e-026
node 7 2 1 3 -4.8367e-026 -4.8367e-026
node 8 1 0 2 -4.8367e-026 -4.8367e-026
gene 3 1 8 -0.792077 0 1 -0.792077 1
gene 3 2 8 -1.52281 0 2 -1.52281 1
gene 1 3 8 0.610858 0 3 0.610858 1
gene 2 4 8 -4.35298 0 4 -4.35298 1
gene 1 5 8 4.29597 0 5 4.29597 1
gene 3 6 8 3.19975 0 6 3.19975 1
gene 2 7 8 -0.676595 0 7 -0.676595 1
gene 3 8 8 -0.0552685 1 14 -0.0552685 1
genomeend 1939

/* Organism #3413 Fitness: 75 Error: 0 */
genomestart 3413
trait 1 0.090519 0 0.327769 0 0.4537 0.0593013 0 0 
trait 2 0.6 0 0.277749 0.418287 0 0 0 0 
trait 3 0.3 0 0 0 0 0 0 0 
node 1 3 1 1 -4.8367e-026 -4.8367e-026
node 2 2 1 1 -4.8367e-026 -4.8367e-026
node 3 2 1 1 -4.8367e-026 -4.8367e-026
node 4 3 1 1 -4.8367e-026 -4.8367e-026
node 5 1 1 1 -4.8367e-026 -4.8367e-026
node 6 2 1 1 -4.8367e-026 -4.8367e-026
node 7 2 1 3 -4.8367e-026 -4.8367e-026
node 8 1 0 2 -4.8367e-026 -4.8367e-026
gene 3 1 8 -0.792077 0 1 -0.792077 1
gene 3 2 8 -1.52281 0 2 -1.52281 1
gene 1 3 8 0.610858 0 3 0.610858 1
gene 2 4 8 -4.35298 0 4 -4.35298 1
gene 1 5 8 4.29597 0 5 4.29597 1
gene 3 6 8 3.19975 0 6 3.19975 1
gene 2 7 8 -0.676595 0 7 -0.676595 1
gene 3 8 8 -0.0552685 1 14 -0.0552685 1
genomeend 3413

/* Organism #2586 Fitness: 72 Error: 0 */
genomestart 2586
trait 1 0.090519 0 0.327769 0 0.4537 0.0593013 0 0 
trait 2 0.6 0 0.277749 0.418287 0 0 0 0.42935 
trait 3 0.3 0 0 0 0 0 0 0 
node 1 3 1 1 -4.8367e-026 -4.8367e-026
node 2 2 1 1 -4.8367e-026 -4.8367e-026
node 3 2 1 1 -4.8367e-026 -4.8367e-026
node 4 3 1 1 -4.8367e-026 -4.8367e-026
node 5 1 1 1 -4.8367e-026 -4.8367e-026
node 6 2 1 1 -4.8367e-026 -4.8367e-026
node 7 2 1 3 -4.8367e-026 -4.8367e-026
node 8 1 0 2 -4.8367e-026 -4.8367e-026
node 15 1 0 0 0.5 0
gene 3 1 8 -1.25227 0 1 -1.25227 1
gene 3 2 8 -0.801798 0 2 -0.801798 0
gene 1 3 8 -0.893536 0 3 -0.893536 1
gene 2 4 8 -3.36843 0 4 -3.36843 1
gene 1 5 8 4.57264 0 5 4.57264 1
gene 3 6 8 2.01545 0 6 2.01545 1
gene 2 7 8 -0.244993 0 7 -0.244993 1
gene 3 8 8 -0.505905 1 14 -0.505905 1
gene 3 2 15 1.82891 0 44 1.82891 1
gene 3 15 8 -0.284036 0 45 -0.284036 1
gene 1 15 15 -0.617817 1 104 -0.617817 1
genomeend 2586

/* Organism #2230 Fitness: 70 Error: 0 */
genomestart 2230
trait 1 0.090519 0 0.327769 0 0.4537 0.0593013 0 0 
trait 2 0.6 0 0.277749 0.418287 0 0 0 0.42935 
trait 3 0.3 0 0 0 0 0 0 0 
node 1 3 1 1 -4.8367e-026 -4.8367e-026
node 2 2 1 1 -4.8367e-026 -4.8367e-026
node 3 2 1 1 -4.8367e-026 -4.8367e-026
node 4 3 1 1 -4.8367e-026 -4.8367e-026
node 5 1 1 1 -4.8367e-026 -4.8367e-026
node 6 2 1 1 -4.8367e-026 -4.8367e-026
node 7 2 1 3 -4.8367e-026 -4.8367e-026
node 8 1 0 2 -4.8367e-026 -4.8367e-026
node 15 1 0 0 0.5 0
gene 3 1 8 -0.374925 0 1 -0.374925 1
gene 3 2 8 -0.793619 0 2 -0.793619 0
gene 1 3 8 -0.491119 0 3 -0.491119 1
gene 2 4 8 -3.65133 0 4 -3.65133 1
gene 1 5 8 4.17388 0 5 4.17388 1
gene 3 6 8 2.92481 0 6 2.92481 1
gene 2 7 8 0.236009 0 7 0.236009 1
gene 3 8 8 0.122105 1 14 0.122105 1
gene 3 2 15 1 0 44 0 1
gene 3 15 8 -0.238086 0 45 0 1
genomeend 2230

/* Organism #1859 Fitness: 68 Error: 0 */
genomestart 1859
trait 1 0.090519 0 0.327769 0 0.4537 0.0593013 0 0 
trait 2 0.6 0 0.277749 0.418287 0 0 0 0 
trait 3 0.3 0 0 0 0 0 0 0 
node 1 3 1 1 -4.8367e-026 -4.8367e-026
node 2 2 1 1 -4.8367e-026 -4.8367e-026
node 3 2 1 1 -4.8367e-026 -4.8367e-026
node 4 3 1 1 -4.8367e-026 -4.8367e-026
node 5 1 1 1 -4.8367e-026 -4.8367e-026
node 6 2 1 1 -4.8367e-026 -4.8367e-026
node 7 2 1 3 -4.8367e-026 -4.8367e-026
node 8 1 0 2 -4.8367e-026 -4.8367e-026
gene 3 1 8 -0.101145 0 1 -0.101145 1
gene 3 2 8 -0.93292 0 2 -0.93292 1
gene 1 3 8 0.65981 0 3 0.65981 1
gene 2 4 8 -2.6191 0 4 -2.6191 1
gene 1 5 8 4.87058 0 5 4.87058 1
gene 3 6 8 3.18513 0 6 3.18513 1
gene 2 7 8 -0.898577 0 7 -0.898577 1
gene 3 8 8 0.354229 1 14 0.354229 1
genomeend 1859

/* Organism #2552 Fitness: 67 Error: 0 */
genomestart 2552
trait 1 0.090519 0 0.327769 0 0.4537 0.0593013 0 0 
trait 2 0.6 0 0.277749 0.418287 0 0 0 0.42935 
trait 3 0.3 0 0 0 0 0 0 0 
node 1 3 1 1 -4.8367e-026 -4.8367e-026
node 2 2 1 1 -4.8367e-026 -4.8367e-026
node 3 2 1 1 -4.8367e-026 -4.8367e-026
node 4 3 1 1 -4.8367e-026 -4.8367e-026
node 5 1 1 1 -4.8367e-026 -4.8367e-026
node 6 2 1 1 -4.8367e-026 -4.8367e-026
node 7 2 1 3 -4.8367e-026 -4.8367e-026
node 8 1 0 2 -4.8367e-026 -4.8367e-026
node 15 1 0 0 0.5 0
gene 3 1 8 -0.828033 0 1 -0.828033 1
gene 3 2 8 -0.792215 0 2 -0.792215 0
gene 1 3 8 -0.0954161 0 3 -0.0954161 1
gene 2 4 8 -2.98749 0 4 -2.98749 1
gene 1 5 8 3.21368 0 5 3.21368 1
gene 3 6 8 2.92481 0 6 2.92481 1
gene 2 7 8 -0.558662 0 7 -0.558662 1
gene 3 8 8 0.713493 1 14 0.713493 1
gene 3 2 15 0.625599 0 44 0.625599 1
gene 3 15 8 0.121067 0 45 0.121067 1
gene 1 15 15 -1.52699 1 104 -1.52699 1
genomeend 2552

/* Organism #2547 Fitness: 65 Error: 0 */
genomestart 2547
trait 1 0.090519 0 0.327769 0 0.4537 0.0593013 0 0 
trait 2 0.6 0 0.277749 0.418287 0 0 0 0 
trait 3 0.3 0 0 0 0 0 0 0 
node 1 3 1 1 -4.8367e-026 -4.8367e-026
node 2 2 1 1 -4.8367e-026 -4.8367e-026
node 3 2 1 1 -4.8367e-026 -4.8367e-026
node 4 3 1 1 -4.8367e-026 -4.8367e-026
node 5 1 1 1 -4.8367e-026 -4.8367e-026
node 6 2 1 1 -4.8367e-026 -4.8367e-026
node 7 2 1 3 -4.8367e-026 -4.8367e-026
node 8 1 0 2 -4.8367e-026 -4.8367e-026
gene 3 1 8 -1.66088 0 1 -1.66088 1
gene 3 2 8 -1.92291 0 2 -1.92291 1
gene 1 3 8 -0.739067 0 3 -0.739067 1
gene 2 4 8 -4.35298 0 4 -4.35298 1
gene 1 5 8 4.29597 0 5 4.29597 1
gene 3 6 8 3.19975 0 6 3.19975 1
gene 2 7 8 -0.676595 0 7 -0.676595 1
gene 3 8 8 0.326487 1 14 0.326487 1
genomeend 2547

/* Organism #3254 Fitness: 65 Error: 0 */
genomestart 3254
trait 1 0.090519 0 0.327769 0 0.4537 0.0593013 0 0 
trait 2 0.6 0 0.277749 0.418287 0 0 0 0 
trait 3 0.3 0 0 0 0 0 0 0 
node 1 3 1 1 -4.8367e-026 -4.8367e-026
node 2 2 1 1 -4.8367e-026 -4.8367e-026
node 3 2 1 1 -4.8367e-026 -4.8367e-026
node 4 3 1 1 -4.8367e-026 -4.8367e-026
node 5 1 1 1 -4.8367e-026 -4.8367e-026
node 6 2 1 1 -4.8367e-026 -4.8367e-026
node 7 2 1 3 -4.8367e-026 -4.8367e-026
node 8 1 0 2 -4.8367e-026 -4.8367e-026
gene 3 1 8 -0.777856 0 1 -0.777856 1
gene 3 2 8 -2.44896 0 2 -2.44896 1
gene 1 3 8 0.46321 0 3 0.46321 1
gene 2 4 8 -5.01343 0 4 -5.01343 1
gene 1 5 8 5.67483 0 5 5.67483 1
gene 3 6 8 3.55407 0 6 3.55407 1
gene 2 7 8 -0.584908 0 7 -0.584908 1
gene 3 8 8 -0.574938 1 14 -0.574938 1
genomeend 3254

/* Organism #1985 Fitness: 62 Error: 0 */
genomestart 1985
trait 1 0.090519 0 0.327769 0 0.4537 0.0593013 0 0 
trait 2 0.6 0 0.277749 0.418287 0 0 0 0 
trait 3 0.3 0 0 0 0 0 0 0 
node 1 3 1 1 -4.8367e-026 -4.8367e-026
node 2 2 1 1 -4.8367e-026 -4.8367e-026
node 3 2 1 1 -4.8367e-026 -4.8367e-026
node 4 3 1 1 -4.8367e-026 -4.8367e-026
node 5 1 1 1 -4.8367e-026 -4.8367e-026
node 6 2 1 1 -4.8367e-026 -4.8367e-026
node 7 2 1 3 -4.8367e-026 -4.8367e-026
node 8 1 0 2 -4.8367e-026 -4.8367e-026
gene 3 1 8 -0.792077 0 1 -0.792077 1
gene 3 2 8 -0.93292 0 2 -0.93292 1
gene 1 3 8 -0.73159 0 3 -0.73159 1
gene 2 4 8 -4.35298 0 4 -4.35298 1
gene 1 5 8 4.29597 0 5 4.29597 1
gene 3 6 8 3.18513 0 6 3.18513 1
gene 2 7 8 0.373434 0 7 0.373434 1
gene 3 8 8 0.122105 1 14 0.122105 1
genomeend 1985

/* Organism #2545 Fitness: 61 Error: 0 */
genomestart 2545
trait 1 0.090519 0 0.327769 0 0.4537 0.0593013 0 0 
trait 2 0.6 0 0.277749 0.418287 0 0 0 0 
trait 3 0.3 0 0 0 0 0 0 0 
node 1 3 1 1 -4.8367e-026 -4.8367e-026
node 2 2 1 1 -4.8367e-026 -4.8367e-026
node 3 2 1 1 -4.8367e-026 -4.8367e-026
node 4 3 1 1 -4.8367e-026 -4.8367e-026
node 5 1 1 1 -4.8367e-026 -4.8367e-026
node 6 2 1 1 -4.8367e-026 -4.8367e-026
node 7 2 1 3 -4.8367e-026 -4.8367e-026
node 8 1 0 2 -4.8367e-026 -4.8367e-026
gene 3 1 8 0.223818 0 1 0.223818 1
gene 3 2 8 -1.35842 0 2 -1.35842 1
gene 1 3 8 -0.597507 0 3 -0.597507 1
gene 2 4 8 -4.08256 0 4 -4.08256 1
gene 1 5 8 3.7718 0 5 3.7718 1
gene 3 6 8 2.99492 0 6 2.99492 1
gene 2 7 8 -0.230848 0 7 -0.230848 1
gene 3 8 8 0.54838 1 14 0.54838 1
genomeend 2545

/* Organism #3156 Fitness: 61 Error: 0 */
genomestart 3156
trait 1 0.0702595 0 0.327769 0 0.450444 0.0296506 0 0 
trait 2 0.396704 0 0.138874 0.209143 0 0 0.364849 0.374203 
trait 3 0.3 0 0 0 0 0 0 0 
node 1 3 1 1 -4.8367e-026 -4.8367e-026
node 2 2 1 1 -4.8367e-026 -4.8367e-026
node 3 2 1 1 -4.8367e-026 -4.8367e-026
node 4 3 1 1 -4.8367e-026 -4.8367e-026
node 5 1 1 1 -4.8367e-026 -4.8367e-026
node 6 2 1 1 -4.8367e-026 -4.8367e-026
node 7 2 1 3 -4.8367e-026 -4.8367e-026
node 8 1 0 2 -4.8367e-026 -4.8367e-026
gene 3 1 8 0.263894 0 1 0.263894 1
gene 3 2 8 -1.57836 0 2 -1.57836 1
gene 1 3 8 2.0387 0 3 2.0387 1
gene 2 4 8 -3.34545 0 4 -3.34545 1
gene 1 5 8 4.80792 0 5 4.80792 1
gene 3 6 8 2.00305 0 6 2.00305 1
gene 3 7 8 -0.375225 0 7 -0.375225 1
gene 3 8 8 -0.962493 1 14 -0.962493 1
genomeend 3156

/* Organism #2192 Fitness: 54 Error: 0 */
genomestart 2192
trait 1 0.090519 0 0.327769 0 0.4537 0.0593013 0 0 
trait 2 0.6 0 0.277749 0.418287 0 0 0 0 
trait 3 0.3 0 0 0 0 0 0 0 
node 1 3 1 1 -4.8367e-026 -4.8367e-026
node 2 2 1 1 -4.8367e-026 -4.8367e-026
node 3 2 1 1 -4.8367e-026 -4.8367e-026
node 4 3 1 1 -4.8367e-026 -4.8367e-026
node 5 1 1 1 -4.8367e-026 -4.8367e-026
node 6 2 1 1 -4.8367e-026 -4.8367e-026
node 7 2 1 3 -4.8367e-026 -4.8367e-026
node 8 1 0 2 -4.8367e-026 -4.8367e-026
gene 3 1 8 0.829456 0 1 0.829456 1
gene 3 2 8 0.0758995 0 2 0.0758995 1
gene 1 3 8 0.102359 0 3 0.102359 1
gene 2 4 8 -3.32826 0 4 -3.32826 1
gene 1 5 8 4.75274 0 5 4.75274 1
gene 3 6 8 3.84836 0 6 3.84836 1
gene 2 7 8 -1.04183 0 7 -1.04183 1
gene 3 8 8 -0.642078 1 14 -0.642078 1
genomeend 2192

/* Organism #2143 Fitness: 54 Error: 0 */
genomestart 2143
trait 1 0.090519 0 0.327769 0 0.4537 0.0593013 0 0 
trait 2 0.6 0 0.277749 0.418287 0 0 0 0 
trait 3 0.3 0 0 0 0 0 0 0 
node 1 3 1 1 -4.8367e-026 -4.8367e-026
node 2 2 1 1 -4.8367e-026 -4.8367e-026
node 3 2 1 1 -4.8367e-026 -4.8367e-026
node 4 3 1 1 -4.8367e-026 -4.8367e-026
node 5 1 1 1 -4.8367e-026 -4.8367e-026
node 6 2 1 1 -4.8367e-026 -4.8367e-026
node 7 2 1 3 -4.8367e-026 -4.8367e-026
node 8 1 0 2 -4.8367e-026 -4.8367e-026
gene 3 1 8 0.829456 0 1 0.829456 1
gene 3 2 8 0.0758995 0 2 0.0758995 1
gene 1 3 8 0.102359 0 3 0.102359 1
gene 2 4 8 -3.32826 0 4 -3.32826 1
gene 1 5 8 4.75274 0 5 4.75274 1
gene 3 6 8 3.84836 0 6 3.84836 1
gene 2 7 8 -1.04183 0 7 -1.04183 1
gene 3 8 8 -0.642078 1 14 -0.642078 1
genomeend 2143

/* Organism #2272 Fitness: 54 Error: 0 */
genomestart 2272
trait 1 0.090519 0 0.327769 0 0.4537 0.0593013 0 0 
trait 2 0.6 0 0.277749 0.418287 0 0 0 0 
trait 3 0.3 0 0 0 0 0 0 0 
node 1 3 1 1 -4.8367e-026 -4.8367e-026
node 2 2 1 1 -4.8367e-026 -4.8367e-026
node 3 2 1 1 -4.8367e-026 -4.8367e-026
node 4 3 1 1 -4.8367e-026 -4.8367e-026
node 5 1 1 1 -4.8367e-026 -4.8367e-026
node 6 2 1 1 -4.8367e-026 -4.8367e-026
node 7 2 1 3 -4.8367e-026 -4.8367e-026
node 8 1 0 2 -4.8367e-026 -4.8367e-026
gene 3 1 8 0.829456 0 1 0.829456 1
gene 3 2 8 0.0758995 0 2 0.0758995 1
gene 1 3 8 0.102359 0 3 0.102359 1
gene 2 4 8 -3.32826 0 4 -3.32826 1
gene 1 5 8 4.75274 0 5 4.75274 1
gene 3 6 8 3.84836 0 6 3.84836 1
gene 2 7 8 -1.04183 0 7 -1.04183 1
gene 3 8 8 -0.642078 1 14 -0.642078 1
genomeend 2272

/* Organism #2084 Fitness: 54 Error: 0 */
genomestart 2084
trait 1 0.090519 0 0.327769 0 0.4537 0.0593013 0 0 
trait 2 0.6 0 0.277749 0.418287 0 0 0 0 
trait 3 0.3 0 0 0 0 0 0 0 
node 1 3 1 1 -4.8367e-026 -4.8367e-026
node 2 2 1 1 -4.8367e-026 -4.8367e-026
node 3 2 1 1 -4.8367e-026 -4.8367e-026
node 4 3 1 1 -4.8367e-026 -4.8367e-026
node 5 1 1 1 -4.8367e-026 -4.8367e-026
node 6 2 1 1 -4.8367e-026 -4.8367e-026
node 7 2 1 3 -4.8367e-026 -4.8367e-026
node 8 1 0 2 -4.8367e-026 -4.8367e-026
gene 3 1 8 0.829456 0 1 0.829456 1
gene 3 2 8 0.0758995 0 2 0.0758995 1
gene 1 3 8 0.102359 0 3 0.102359 1
gene 2 4 8 -3.32826 0 4 -3.32826 1
gene 1 5 8 4.75274 0 5 4.75274 1
gene 3 6 8 3.84836 0 6 3.84836 1
gene 2 7 8 -1.04183 0 7 -1.04183 1
gene 3 8 8 -0.642078 1 14 -0.642078 1
genomeend 2084

/* Organism #2811 Fitness: 52 Error: 0 */
genomestart 2811
trait 1 0.090519 0 0.327769 0 0.4537 0.0593013 0 0 
trait 2 0.6 0 0.277749 0.418287 0 0 0 0 
trait 3 0.3 0 0 0 0 0 0 0 
node 1 3 1 1 -4.8367e-026 -4.8367e-026
node 2 2 1 1 -4.8367e-026 -4.8367e-026
node 3 2 1 1 -4.8367e-026 -4.8367e-026
node 4 3 1 1 -4.8367e-026 -4.8367e-026
node 5 1 1 1 -4.8367e-026 -4.8367e-026
node 6 2 1 1 -4.8367e-026 -4.8367e-026
node 7 2 1 3 -4.8367e-026 -4.8367e-026
node 8 1 0 2 -4.8367e-026 -4.8367e-026
gene 3 1 8 -1.25642 0 1 -1.25642 1
gene 3 2 8 -1.73547 0 2 -1.73547 1
gene 1 3 8 0.857875 0 3 0.857875 1
gene 2 4 8 -4.45064 0 4 -4.45064 1
gene 1 5 8 3.515 0 5 3.515 1
gene 3 6 8 3.11457 0 6 3.11457 1
gene 2 7 8 -0.20307 0 7 -0.20307 1
gene 3 8 8 -0.858058 1 14 -0.858058 1
genomeend 2811

/* Organism #2373 Fitness: 56 Error: 0 */
genomestart 2373
trait 1 0.090519 0 0.327769 0 0.4537 0.0593013 0 0 
trait 2 0.6 0 0.277749 0.418287 0 0 0 0.42935 
trait 3 0.3 0 0 0 0 0 0 0 
node 1 3 1 1 -4.8367e-026 -4.8367e-026
node 2 2 1 1 -4.8367e-026 -4.8367e-026
node 3 2 1 1 -4.8367e-026 -4.8367e-026
node 4 3 1 1 -4.8367e-026 -4.8367e-026
node 5 1 1 1 -4.8367e-026 -4.8367e-026
node 6 2 1 1 -4.8367e-026 -4.8367e-026
node 7 2 1 3 -4.8367e-026 -4.8367e-026
node 8 1 0 2 -4.8367e-026 -4.8367e-026
node 15 1 0 0 0.5 0
gene 3 1 8 -0.374925 0 1 -0.374925 1
gene 3 2 8 -0.793619 0 2 -0.793619 0
gene 1 3 8 -0.491119 0 3 -0.491119 1
gene 2 4 8 -3.65133 0 4 -3.65133 1
gene 1 5 8 4.17388 0 5 4.17388 1
gene 3 6 8 2.92481 0 6 2.92481 1
gene 2 7 8 0.236009 0 7 0.236009 1
gene 3 8 8 0.122105 1 14 0.122105 1
gene 3 2 15 1 0 44 0 1
gene 3 15 8 -0.238086 0 45 0 1
gene 1 15 15 -0.617817 1 104 -0.617817 1
genomeend 2373

/* Organism #2463 Fitness: 81 Error: 0 */
genomestart 2463
trait 1 0.090519 0 0.327769 0 0.4537 0.0593013 0 0 
trait 2 0.6 0 0.277749 0.418287 0 0 0 0.42935 
trait 3 0.3 0 0 0 0 0 0 0 
node 1 3 1 1 -4.8367e-026 -4.8367e-026
node 2 2 1 1 -4.8367e-026 -4.8367e-026
node 3 2 1 1 -4.8367e-026 -4.8367e-026
node 4 3 1 1 -4.8367e-026 -4.8367e-026
node 5 1 1 1 -4.8367e-026 -4.8367e-026
node 6 2 1 1 -4.8367e-026 -4.8367e-026
node 7 2 1 3 -4.8367e-026 -4.8367e-026
node 8 1 0 2 -4.8367e-026 -4.8367e-026
node 15 1 0 0 0.5 0
gene 3 1 8 -0.374925 0 1 -0.374925 1
gene 3 2 8 -0.793619 0 2 -0.793619 0
gene 1 3 8 -0.491119 0 3 -0.491119 1
gene 2 4 8 -3.65133 0 4 -3.65133 1
gene 1 5 8 4.17388 0 5 4.17388 1
gene 3 6 8 2.92481 0 6 2.92481 1
gene 2 7 8 0.236009 0 7 0.236009 1
gene 3 8 8 0.122105 1 14 0.122105 1
gene 3 2 15 1 0 44 0 1
gene 3 15 8 -0.238086 0 45 0 1
gene 2 15 15 0.576647 1 107 0.576647 1
genomeend 2463

/* Organism #2873 Fitness: 73 Error: 0 */
genomestart 2873
trait 1 0.05 0 0.327769 0 0.447188 0 0 0 
trait 2 0.193408 0 0 0 0 0 0.729698 0.748405 
trait 3 0.3 0 0 0 0 0 0 0 
node 1 3 1 1 -4.8367e-026 -4.8367e-026
node 2 2 1 1 -4.8367e-026 -4.8367e-026
node 3 2 1 1 -4.8367e-026 -4.8367e-026
node 4 3 1 1 -4.8367e-026 -4.8367e-026
node 5 1 1 1 -4.8367e-026 -4.8367e-026
node 6 2 1 1 -4.8367e-026 -4.8367e-026
node 7 2 1 3 -4.8367e-026 -4.8367e-026
node 8 1 0 2 -4.8367e-026 -4.8367e-026
gene 3 1 8 0.263894 0 1 0.263894 1
gene 3 2 8 -1.0596 0 2 -1.0596 1
gene 1 3 8 2.0387 0 3 2.0387 1
gene 2 4 8 -3.34545 0 4 -3.34545 1
gene 1 5 8 4.80792 0 5 4.80792 1
gene 3 6 8 2.00305 0 6 2.00305 1
gene 3 7 8 -0.375225 0 7 -0.375225 1
gene 3 8 8 -0.962493 1 14 -0.962493 1
genomeend 2873

/* Organism #2919 Fitness: 57 Error: 0 */
genomestart 2919
trait 1 0.090519 0 0.327769 0 0.4537 0.0593013 0 0 
trait 2 0.6 0 0.277749 0.418287 0 0 0 0.42935 
trait 3 0.3 0 0 0 0 0 0 0 
node 1 3 1 1 -4.8367e-026 -4.8367e-026
node 2 2 1 1 -4.8367e-026 -4.8367e-026
node 3 2 1 1 -4.8367e-026 -4.8367e-026
node 4 3 1 1 -4.8367e-026 -4.8367e-026
node 5 1 1 1 -4.8367e-026 -4.8367e-026
node 6 2 1 1 -4.8367e-026 -4.8367e-026
node 7 2 1 3 -4.8367e-026 -4.8367e-026
node 8 1 0 2 -4.8367e-026 -4.8367e-026
node 15 1 0 0 0.5 0
gene 3 1 8 -2.21733 0 1 -2.21733 1
gene 3 2 8 -1.57459 0 2 -1.57459 0
gene 1 3 8 -0.998489 0 3 -0.998489 1
gene 2 4 8 -3.12989 0 4 -3.12989 1
gene 1 5 8 4.92943 0 5 4.92943 1
gene 3 6 8 2.58004 0 6 2.58004 1
gene 2 7 8 -0.295135 0 7 -0.295135 1
gene 3 8 8 -0.475539 1 14 -0.475539 1
gene 3 2 15 2.66323 0 44 2.66323 1
gene 3 15 8 -0.940683 0 45 -0.940683 1
gene 2 4 15 0.982543 0 79 0.982543 1
gene 1 15 15 -0.617817 1 104 -0.617817 1
gene 3 8 15 0.21247 1 114 0.21247 1
genomeend 2919

/* Organism #3158 Fitness: 73 Error: 0 */
genomestart 3158
trait 1 0.05 0 0.327769 0 0.447188 0 0 0 
trait 2 0.193408 0 0 0 0 0 0.729698 0.748405 
trait 3 0.3 0 0 0 0 0 0 0 
node 1 3 1 1 -4.8367e-026 -4.8367e-026
node 2 2 1 1 -4.8367e-026 -4.8367e-026
node 3 2 1 1 -4.8367e-026 -4.8367e-026
node 4 3 1 1 -4.8367e-026 -4.8367e-026
node 5 1 1 1 -4.8367e-026 -4.8367e-026
node 6 2 1 1 -4.8367e-026 -4.8367e-026
node 7 2 1 3 -4.8367e-026 -4.8367e-026
node 8 1 0 2 -4.8367e-026 -4.8367e-026
gene 3 1 8 0.263894 0 1 0.263894 1
gene 3 2 8 -1.0596 0 2 -1.0596 1
gene 1 3 8 2.0387 0 3 2.0387 1
gene 2 4 8 -3.34545 0 4 -3.34545 1
gene 1 5 8 4.80792 0 5 4.80792 1
gene 3 6 8 2.00305 0 6 2.00305 1
gene 3 7 8 -0.375225 0 7 -0.375225 1
gene 3 8 8 -0.962493 1 14 -0.962493 1
genomeend 3158

/* Species #3 : (Size 38) (AF 0) (Age 1)  */


/* Organism #3508 Fitness: 52 Error: 0 */
genomestart 3508
trait 1 0 0 0 0.364116 0 0 0 0 
trait 2 0.2 0 0.0130853 0 0 0.0118636 0.0409711 0 
trait 3 0.3 0.453322 0.964843 0.599261 0.225501 0 0.805475 0.16007 
node 1 2 1 1 -4.8367e-026 -4.8367e-026
node 2 2 1 1 -4.8367e-026 -4.8367e-026
node 3 2 1 1 -4.8367e-026 -4.8367e-026
node 4 3 1 1 -4.8367e-026 -4.8367e-026
node 5 1 1 1 -4.8367e-026 -4.8367e-026
node 6 3 1 1 -4.8367e-026 -4.8367e-026
node 7 1 1 3 -4.8367e-026 -4.8367e-026
node 8 1 0 2 -4.8367e-026 -4.8367e-026
gene 3 1 8 -2.18425 0 1 -2.18425 1
gene 2 2 8 -0.331126 0 2 -0.331126 1
gene 2 3 8 -1.08173 0 3 -1.08173 1
gene 1 4 8 2.52762 0 4 2.52762 1
gene 1 5 8 0.273873 0 5 0.273873 1
gene 1 6 8 3.21545 0 6 3.21545 1
gene 1 7 8 0.526811 0 7 0.526811 1
gene 2 8 8 0.89227 1 43 0.89227 1
genomeend 3508

/* Organism #1475 Fitness: 52 Error: 0 */
genomestart 1475
trait 1 0 0 0 0.364116 0 0 0 0 
trait 2 0.2 0 0.0130853 0 0 0.0118636 0.0409711 0 
trait 3 0.3 0.453322 0.964843 0.599261 0.225501 0 0.805475 0.16007 
node 1 2 1 1 -4.8367e-026 -4.8367e-026
node 2 2 1 1 -4.8367e-026 -4.8367e-026
node 3 2 1 1 -4.8367e-026 -4.8367e-026
node 4 3 1 1 -4.8367e-026 -4.8367e-026
node 5 1 1 1 -4.8367e-026 -4.8367e-026
node 6 3 1 1 -4.8367e-026 -4.8367e-026
node 7 1 1 3 -4.8367e-026 -4.8367e-026
node 8 1 0 2 -4.8367e-026 -4.8367e-026
gene 3 1 8 -2.18425 0 1 -2.18425 1
gene 2 2 8 -0.331126 0 2 -0.331126 1
gene 2 3 8 -1.08173 0 3 -1.08173 1
gene 1 4 8 2.52762 0 4 2.52762 1
gene 1 5 8 0.273873 0 5 0.273873 1
gene 1 6 8 3.21545 0 6 3.21545 1
gene 1 7 8 0.526811 0 7 0.526811 1
gene 2 8 8 0.89227 1 43 0.89227 1
genomeend 1475

/* Organism #1487 Fitness: 52 Error: 0 */
genomestart 1487
trait 1 0 0 0 0.364116 0 0 0 0 
trait 2 0.2 0 0.0130853 0 0 0.0118636 0.0409711 0 
trait 3 0.3 0.453322 0.964843 0.599261 0.225501 0 0.805475 0.16007 
node 1 2 1 1 -4.8367e-026 -4.8367e-026
node 2 2 1 1 -4.8367e-026 -4.8367e-026
node 3 2 1 1 -4.8367e-026 -4.8367e-026
node 4 3 1 1 -4.8367e-026 -4.8367e-026
node 5 1 1 1 -4.8367e-026 -4.8367e-026
node 6 3 1 1 -4.8367e-026 -4.8367e-026
node 7 1 1 3 -4.8367e-026 -4.8367e-026
node 8 1 0 2 -4.8367e-026 -4.8367e-026
gene 3 1 8 -2.18425 0 1 -2.18425 1
gene 2 2 8 -0.331126 0 2 -0.331126 1
gene 2 3 8 -1.08173 0 3 -1.08173 1
gene 1 4 8 2.52762 0 4 2.52762 1
gene 1 5 8 0.273873 0 5 0.273873 1
gene 1 6 8 3.21545 0 6 3.21545 1
gene 1 7 8 0.526811 0 7 0.526811 1
gene 2 8 8 0.89227 1 43 0.89227 1
genomeend 1487

/* Organism #2083 Fitness: 52 Error: 0 */
genomestart 2083
trait 1 0 0 0 0.364116 0 0 0 0 
trait 2 0.2 0 0.0130853 0 0 0.0118636 0.0409711 0 
trait 3 0.3 0.453322 0.964843 0.599261 0.225501 0 0.805475 0.16007 
node 1 2 1 1 -4.8367e-026 -4.8367e-026
node 2 2 1 1 -4.8367e-026 -4.8367e-026
node 3 2 1 1 -4.8367e-026 -4.8367e-026
node 4 3 1 1 -4.8367e-026 -4.8367e-026
node 5 1 1 1 -4.8367e-026 -4.8367e-026
node 6 3 1 1 -4.8367e-026 -4.8367e-026
node 7 1 1 3 -4.8367e-026 -4.8367e-026
node 8 1 0 2 -4.8367e-026 -4.8367e-026
gene 3 1 8 -2.18425 0 1 -2.18425 1
gene 2 2 8 -0.331126 0 2 -0.331126 1
gene 2 3 8 -1.08173 0 3 -1.08173 1
gene 1 4 8 2.52762 0 4 2.52762 1
gene 1 5 8 0.273873 0 5 0.273873 1
gene 1 6 8 3.21545 0 6 3.21545 1
gene 1 7 8 0.526811 0 7 0.526811 1
gene 2 8 8 0.89227 1 43 0.89227 1
genomeend 2083

/* Organism #2142 Fitness: 52 Error: 0 */
genomestart 2142
trait 1 0 0 0 0.364116 0 0 0 0 
trait 2 0.2 0 0.0130853 0 0 0.0118636 0.0409711 0 
trait 3 0.3 0.453322 0.964843 0.599261 0.225501 0 0.805475 0.16007 
node 1 2 1 1 -4.8367e-026 -4.8367e-026
node 2 2 1 1 -4.8367e-026 -4.8367e-026
node 3 2 1 1 -4.8367e-026 -4.8367e-026
node 4 3 1 1 -4.8367e-026 -4.8367e-026
node 5 1 1 1 -4.8367e-026 -4.8367e-026
node 6 3 1 1 -4.8367e-026 -4.8367e-026
node 7 1 1 3 -4.8367e-026 -4.8367e-026
node 8 1 0 2 -4.8367e-026 -4.8367e-026
gene 3 1 8 -2.18425 0 1 -2.18425 1
gene 2 2 8 -0.331126 0 2 -0.331126 1
gene 2 3 8 -1.08173 0 3 -1.08173 1
gene 1 4 8 2.52762 0 4 2.52762 1
gene 1 5 8 0.273873 0 5 0.273873 1
gene 1 6 8 3.21545 0 6 3.21545 1
gene 1 7 8 0.526811 0 7 0.526811 1
gene 2 8 8 0.89227 1 43 0.89227 1
genomeend 2142

/* Organism #2213 Fitness: 52 Error: 0 */
genomestart 2213
trait 1 0 0 0 0.364116 0 0 0 0 
trait 2 0.2 0 0.0130853 0 0 0.0118636 0.0409711 0 
trait 3 0.3 0.965728 0.741752 0.599261 0.225501 0 0.805475 0.16007 
node 1 2 1 1 -4.8367e-026 -4.8367e-026
node 2 2 1 1 -4.8367e-026 -4.8367e-026
node 3 2 1 1 -4.8367e-026 -4.8367e-026
node 4 3 1 1 -4.8367e-026 -4.8367e-026
node 5 1 1 1 -4.8367e-026 -4.8367e-026
node 6 3 1 1 -4.8367e-026 -4.8367e-026
node 7 1 1 3 -4.8367e-026 -4.8367e-026
node 8 1 0 2 -4.8367e-026 -4.8367e-026
gene 3 1 8 -2.18425 0 1 -2.18425 1
gene 2 2 8 -0.331126 0 2 -0.331126 1
gene 2 3 8 -1.08173 0 3 -1.08173 1
gene 1 4 8 2.52762 0 4 2.52762 1
gene 1 5 8 0.273873 0 5 0.273873 1
gene 1 6 8 3.21545 0 6 3.21545 1
gene 1 7 8 0.526811 0 7 0.526811 1
gene 2 8 8 0.89227 1 43 0.89227 1
genomeend 2213

/* Organism #2621 Fitness: 52 Error: 0 */
genomestart 2621
trait 1 0 0 0 0.364116 0 0 0 0 
trait 2 0.2 0 0.0130853 0 0 0.0118636 0.0409711 0 
trait 3 0.3 0.453322 0.964843 0.599261 0.225501 0 0.805475 0.16007 
node 1 2 1 1 -4.8367e-026 -4.8367e-026
node 2 2 1 1 -4.8367e-026 -4.8367e-026
node 3 2 1 1 -4.8367e-026 -4.8367e-026
node 4 3 1 1 -4.8367e-026 -4.8367e-026
node 5 1 1 1 -4.8367e-026 -4.8367e-026
node 6 3 1 1 -4.8367e-026 -4.8367e-026
node 7 1 1 3 -4.8367e-026 -4.8367e-026
node 8 1 0 2 -4.8367e-026 -4.8367e-026
gene 3 1 8 -2.18425 0 1 -2.18425 1
gene 2 2 8 -0.331126 0 2 -0.331126 1
gene 2 3 8 -1.08173 0 3 -1.08173 1
gene 1 4 8 2.52762 0 4 2.52762 1
gene 1 5 8 0.273873 0 5 0.273873 1
gene 1 6 8 3.21545 0 6 3.21545 1
gene 1 7 8 0.526811 0 7 0.526811 1
gene 2 8 8 0.89227 1 43 0.89227 1
genomeend 2621

/* Organism #2623 Fitness: 52 Error: 0 */
genomestart 2623
trait 1 0 0 0 0.364116 0 0 0 0 
trait 2 0.2 0 0.0130853 0 0 0.0118636 0.0409711 0 
trait 3 0.3 0.453322 0.964843 0.599261 0.225501 0 0.805475 0.16007 
node 1 2 1 1 -4.8367e-026 -4.8367e-026
node 2 2 1 1 -4.8367e-026 -4.8367e-026
node 3 2 1 1 -4.8367e-026 -4.8367e-026
node 4 3 1 1 -4.8367e-026 -4.8367e-026
node 5 1 1 1 -4.8367e-026 -4.8367e-026
node 6 3 1 1 -4.8367e-026 -4.8367e-026
node 7 1 1 3 -4.8367e-026 -4.8367e-026
node 8 1 0 2 -4.8367e-026 -4.8367e-026
gene 3 1 8 -2.18425 0 1 -2.18425 1
gene 2 2 8 -0.331126 0 2 -0.331126 1
gene 2 3 8 -1.08173 0 3 -1.08173 1
gene 1 4 8 2.52762 0 4 2.52762 1
gene 1 5 8 0.273873 0 5 0.273873 1
gene 1 6 8 3.21545 0 6 3.21545 1
gene 1 7 8 0.526811 0 7 0.526811 1
gene 2 8 8 0.89227 1 43 0.89227 1
genomeend 2623

/* Organism #2804 Fitness: 52 Error: 0 */
genomestart 2804
trait 1 0 0 0 0.364116 0 0 0 0 
trait 2 0.2 0 0.0130853 0 0 0.0118636 0.0409711 0 
trait 3 0.3 0.453322 0.964843 0.599261 0.225501 0 0.805475 0.16007 
node 1 2 1 1 -4.8367e-026 -4.8367e-026
node 2 2 1 1 -4.8367e-026 -4.8367e-026
node 3 2 1 1 -4.8367e-026 -4.8367e-026
node 4 3 1 1 -4.8367e-026 -4.8367e-026
node 5 1 1 1 -4.8367e-026 -4.8367e-026
node 6 3 1 1 -4.8367e-026 -4.8367e-026
node 7 1 1 3 -4.8367e-026 -4.8367e-026
node 8 1 0 2 -4.8367e-026 -4.8367e-026
gene 3 1 8 -2.18425 0 1 -2.18425 1
gene 2 2 8 -0.331126 0 2 -0.331126 1
gene 2 3 8 -1.08173 0 3 -1.08173 1
gene 1 4 8 2.52762 0 4 2.52762 1
gene 1 5 8 0.273873 0 5 0.273873 1
gene 1 6 8 3.21545 0 6 3.21545 1
gene 1 7 8 0.526811 0 7 0.526811 1
gene 2 8 8 0.89227 1 43 0.89227 1
genomeend 2804

/* Organism #2886 Fitness: 52 Error: 0 */
genomestart 2886
trait 1 0 0 0 0.364116 0 0 0 0 
trait 2 0.2 0 0.0130853 0 0 0.0118636 0.0409711 0 
trait 3 0.3 0.453322 0.964843 0.599261 0.225501 0 0.805475 0.16007 
node 1 2 1 1 -4.8367e-026 -4.8367e-026
node 2 2 1 1 -4.8367e-026 -4.8367e-026
node 3 2 1 1 -4.8367e-026 -4.8367e-026
node 4 3 1 1 -4.8367e-026 -4.8367e-026
node 5 1 1 1 -4.8367e-026 -4.8367e-026
node 6 3 1 1 -4.8367e-026 -4.8367e-026
node 7 1 1 3 -4.8367e-026 -4.8367e-026
node 8 1 0 2 -4.8367e-026 -4.8367e-026
gene 3 1 8 -2.18425 0 1 -2.18425 1
gene 2 2 8 -0.331126 0 2 -0.331126 1
gene 2 3 8 -1.08173 0 3 -1.08173 1
gene 1 4 8 2.52762 0 4 2.52762 1
gene 1 5 8 0.273873 0 5 0.273873 1
gene 1 6 8 3.21545 0 6 3.21545 1
gene 1 7 8 0.526811 0 7 0.526811 1
gene 2 8 8 0.89227 1 43 0.89227 1
genomeend 2886

/* Organism #2891 Fitness: 52 Error: 0 */
genomestart 2891
trait 1 0 0 0 0.364116 0 0 0 0 
trait 2 0.2 0 0.0130853 0 0 0.0118636 0.0409711 0 
trait 3 0.3 0.453322 0.964843 0.599261 0.225501 0 0.805475 0.16007 
node 1 2 1 1 -4.8367e-026 -4.8367e-026
node 2 2 1 1 -4.8367e-026 -4.8367e-026
node 3 2 1 1 -4.8367e-026 -4.8367e-026
node 4 3 1 1 -4.8367e-026 -4.8367e-026
node 5 1 1 1 -4.8367e-026 -4.8367e-026
node 6 3 1 1 -4.8367e-026 -4.8367e-026
node 7 1 1 3 -4.8367e-026 -4.8367e-026
node 8 1 0 2 -4.8367e-026 -4.8367e-026
gene 3 1 8 -2.18425 0 1 -2.18425 1
gene 2 2 8 -0.331126 0 2 -0.331126 1
gene 2 3 8 -1.08173 0 3 -1.08173 1
gene 1 4 8 2.52762 0 4 2.52762 1
gene 1 5 8 0.273873 0 5 0.273873 1
gene 1 6 8 3.21545 0 6 3.21545 1
gene 1 7 8 0.526811 0 7 0.526811 1
gene 2 8 8 0.89227 1 43 0.89227 1
genomeend 2891

/* Organism #3126 Fitness: 52 Error: 0 */
genomestart 3126
trait 1 0 0 0 0.364116 0 0 0 0 
trait 2 0.2 0 0.0130853 0 0 0.0118636 0.0409711 0 
trait 3 0.3 0.453322 0.964843 0.599261 0.225501 0 0.805475 0.16007 
node 1 2 1 1 -4.8367e-026 -4.8367e-026
node 2 2 1 1 -4.8367e-026 -4.8367e-026
node 3 2 1 1 -4.8367e-026 -4.8367e-026
node 4 3 1 1 -4.8367e-026 -4.8367e-026
node 5 1 1 1 -4.8367e-026 -4.8367e-026
node 6 3 1 1 -4.8367e-026 -4.8367e-026
node 7 1 1 3 -4.8367e-026 -4.8367e-026
node 8 1 0 2 -4.8367e-026 -4.8367e-026
gene 3 1 8 -2.18425 0 1 -2.18425 1
gene 2 2 8 -0.331126 0 2 -0.331126 1
gene 2 3 8 -1.08173 0 3 -1.08173 1
gene 1 4 8 2.52762 0 4 2.52762 1
gene 1 5 8 0.273873 0 5 0.273873 1
gene 1 6 8 3.21545 0 6 3.21545 1
gene 1 7 8 0.526811 0 7 0.526811 1
gene 2 8 8 0.89227 1 43 0.89227 1
genomeend 3126

/* Organism #3206 Fitness: 52 Error: 0 */
genomestart 3206
trait 1 0 0 0 0.364116 0 0 0 0 
trait 2 0.2 0 0.0130853 0 0 0.0118636 0.0409711 0 
trait 3 0.3 0.453322 0.964843 0.599261 0.225501 0 0.805475 0.16007 
node 1 2 1 1 -4.8367e-026 -4.8367e-026
node 2 2 1 1 -4.8367e-026 -4.8367e-026
node 3 2 1 1 -4.8367e-026 -4.8367e-026
node 4 3 1 1 -4.8367e-026 -4.8367e-026
node 5 1 1 1 -4.8367e-026 -4.8367e-026
node 6 3 1 1 -4.8367e-026 -4.8367e-026
node 7 1 1 3 -4.8367e-026 -4.8367e-026
node 8 1 0 2 -4.8367e-026 -4.8367e-026
gene 3 1 8 -2.18425 0 1 -2.18425 1
gene 2 2 8 -0.331126 0 2 -0.331126 1
gene 2 3 8 -1.08173 0 3 -1.08173 1
gene 1 4 8 2.52762 0 4 2.52762 1
gene 1 5 8 0.273873 0 5 0.273873 1
gene 1 6 8 3.21545 0 6 3.21545 1
gene 1 7 8 0.526811 0 7 0.526811 1
gene 2 8 8 0.89227 1 43 0.89227 1
genomeend 3206

/* Organism #3348 Fitness: 52 Error: 0 */
genomestart 3348
trait 1 0 0 0 0.364116 0 0 0 0 
trait 2 0.2 0 0.0130853 0 0 0.0118636 0.0409711 0 
trait 3 0.3 0.453322 0.964843 0.599261 0.225501 0 0.805475 0.16007 
node 1 2 1 1 -4.8367e-026 -4.8367e-026
node 2 2 1 1 -4.8367e-026 -4.8367e-026
node 3 2 1 1 -4.8367e-026 -4.8367e-026
node 4 3 1 1 -4.8367e-026 -4.8367e-026
node 5 1 1 1 -4.8367e-026 -4.8367e-026
node 6 3 1 1 -4.8367e-026 -4.8367e-026
node 7 1 1 3 -4.8367e-026 -4.8367e-026
node 8 1 0 2 -4.8367e-026 -4.8367e-026
gene 3 1 8 -2.18425 0 1 -2.18425 1
gene 2 2 8 -0.331126 0 2 -0.331126 1
gene 2 3 8 -1.08173 0 3 -1.08173 1
gene 1 4 8 2.52762 0 4 2.52762 1
gene 1 5 8 0.273873 0 5 0.273873 1
gene 1 6 8 3.21545 0 6 3.21545 1
gene 1 7 8 0.526811 0 7 0.526811 1
gene 2 8 8 0.89227 1 43 0.89227 1
genomeend 3348

/* Organism #3369 Fitness: 52 Error: 0 */
genomestart 3369
trait 1 0 0 0 0.364116 0 0 0 0 
trait 2 0.2 0 0.0130853 0 0 0.0118636 0.0409711 0 
trait 3 0.3 0.453322 0.964843 0.599261 0.225501 0 0.805475 0.16007 
node 1 2 1 1 -4.8367e-026 -4.8367e-026
node 2 2 1 1 -4.8367e-026 -4.8367e-026
node 3 2 1 1 -4.8367e-026 -4.8367e-026
node 4 3 1 1 -4.8367e-026 -4.8367e-026
node 5 1 1 1 -4.8367e-026 -4.8367e-026
node 6 3 1 1 -4.8367e-026 -4.8367e-026
node 7 1 1 3 -4.8367e-026 -4.8367e-026
node 8 1 0 2 -4.8367e-026 -4.8367e-026
gene 3 1 8 -2.18425 0 1 -2.18425 1
gene 2 2 8 -0.331126 0 2 -0.331126 1
gene 2 3 8 -1.08173 0 3 -1.08173 1
gene 1 4 8 2.52762 0 4 2.52762 1
gene 1 5 8 0.273873 0 5 0.273873 1
gene 1 6 8 3.21545 0 6 3.21545 1
gene 1 7 8 0.526811 0 7 0.526811 1
gene 2 8 8 0.89227 1 43 0.89227 1
genomeend 3369

/* Organism #3038 Fitness: 45 Error: 0 */
genomestart 3038
trait 1 0.1 0 0 0 0 0 0 0 
trait 2 0.2 0 0 0 0 0 0 0 
trait 3 0.3 0 0 0 0 0 0 0 
node 1 1 1 1 -4.8367e-026 -4.8367e-026
node 2 3 1 1 -4.8367e-026 -4.8367e-026
node 3 2 1 1 -4.8367e-026 -4.8367e-026
node 4 3 1 1 -4.8367e-026 -4.8367e-026
node 5 3 1 1 -4.8367e-026 -4.8367e-026
node 6 2 1 1 -4.8367e-026 -4.8367e-026
node 7 2 1 3 -4.8367e-026 -4.8367e-026
node 8 2 0 2 -4.8367e-026 -4.8367e-026
gene 3 1 8 -1.71665 0 1 -1.71665 1
gene 2 2 8 -1.51172 0 2 -1.51172 1
gene 2 3 8 -0.908185 0 3 -0.908185 1
gene 2 4 8 2.65773 0 4 2.65773 1
gene 3 5 8 -1.36573 0 5 -1.36573 1
gene 2 6 8 1.30372 0 6 1.30372 1
gene 1 7 8 -0.124332 0 7 -0.124332 1
gene 3 8 8 0.316019 1 38 0.316019 1
genomeend 3038

/* Organism #1054 Fitness: 45 Error: 0 */
genomestart 1054
trait 1 0.1 0 0 0 0 0 0 0 
trait 2 0.2 0 0 0 0 0 0 0 
trait 3 0.3 0 0 0 0 0 0 0 
node 1 1 1 1 -4.8367e-026 -4.8367e-026
node 2 3 1 1 -4.8367e-026 -4.8367e-026
node 3 2 1 1 -4.8367e-026 -4.8367e-026
node 4 3 1 1 -4.8367e-026 -4.8367e-026
node 5 3 1 1 -4.8367e-026 -4.8367e-026
node 6 2 1 1 -4.8367e-026 -4.8367e-026
node 7 2 1 3 -4.8367e-026 -4.8367e-026
node 8 2 0 2 -4.8367e-026 -4.8367e-026
gene 3 1 8 -1.71665 0 1 -1.71665 1
gene 2 2 8 -1.51172 0 2 -1.51172 1
gene 2 3 8 -0.908185 0 3 -0.908185 1
gene 2 4 8 2.65773 0 4 2.65773 1
gene 3 5 8 -1.36573 0 5 -1.36573 1
gene 2 6 8 1.30372 0 6 1.30372 1
gene 1 7 8 -0.124332 0 7 -0.124332 1
gene 3 8 8 0.316019 1 38 0.316019 1
genomeend 1054

/* Organism #2640 Fitness: 45 Error: 0 */
genomestart 2640
trait 1 0.1 0 0 0 0 0 0 0 
trait 2 0.2 0 0 0 0 0 0 0 
trait 3 0.3 0 0 0 0 0 0 0 
node 1 1 1 1 -4.8367e-026 -4.8367e-026
node 2 3 1 1 -4.8367e-026 -4.8367e-026
node 3 2 1 1 -4.8367e-026 -4.8367e-026
node 4 3 1 1 -4.8367e-026 -4.8367e-026
node 5 3 1 1 -4.8367e-026 -4.8367e-026
node 6 2 1 1 -4.8367e-026 -4.8367e-026
node 7 2 1 3 -4.8367e-026 -4.8367e-026
node 8 2 0 2 -4.8367e-026 -4.8367e-026
gene 3 1 8 -1.71665 0 1 -1.71665 1
gene 2 2 8 -1.51172 0 2 -1.51172 1
gene 2 3 8 -0.908185 0 3 -0.908185 1
gene 2 4 8 2.65773 0 4 2.65773 1
gene 3 5 8 -1.36573 0 5 -1.36573 1
gene 2 6 8 1.30372 0 6 1.30372 1
gene 1 7 8 -0.124332 0 7 -0.124332 1
gene 3 8 8 0.316019 1 38 0.316019 1
genomeend 2640

/* Organism #3598 Fitness: 61 Error: 0 */
genomestart 3598
trait 1 0 0 0 0.364116 0 0 0 0 
trait 2 0.2 0 0.0130853 0 0 0.0118636 0.0409711 0 
trait 3 0.3 0.453322 0.964843 0.599261 0.225501 0 0.805475 0.16007 
node 1 2 1 1 -4.8367e-026 -4.8367e-026
node 2 2 1 1 -4.8367e-026 -4.8367e-026
node 3 2 1 1 -4.8367e-026 -4.8367e-026
node 4 3 1 1 -4.8367e-026 -4.8367e-026
node 5 1 1 1 -4.8367e-026 -4.8367e-026
node 6 3 1 1 -4.8367e-026 -4.8367e-026
node 7 1 1 3 -4.8367e-026 -4.8367e-026
node 8 1 0 2 -4.8367e-026 -4.8367e-026
node 14 1 0 0 0.5 0
gene 3 1 8 -2.18425 0 1 -2.18425 0
gene 2 2 8 -0.331126 0 2 -0.331126 1
gene 2 3 8 -1.08173 0 3 -1.08173 1
gene 1 4 8 2.52762 0 4 2.52762 1
gene 1 5 8 0.273873 0 5 0.273873 1
gene 1 6 8 3.21545 0 6 3.21545 1
gene 1 7 8 0.526811 0 7 0.526811 1
gene 3 1 14 1 0 36 0 1
gene 3 14 8 -0.655274 0 37 0 1
gene 2 8 8 0.89227 1 43 0.89227 1
genomeend 3598

/* Organism #1554 Fitness: 77 Error: 0 */
genomestart 1554
trait 1 0.1 0 0 0 0 0 0 0 
trait 2 0.2 0 0.0261706 0 0 0.0237272 0.0819422 0 
trait 3 0.3 0.453322 0.964843 0.599261 0.225501 0 0.805475 0.16007 
node 1 2 1 1 -4.8367e-026 -4.8367e-026
node 2 2 1 1 -4.8367e-026 -4.8367e-026
node 3 2 1 1 -4.8367e-026 -4.8367e-026
node 4 3 1 1 -4.8367e-026 -4.8367e-026
node 5 1 1 1 -4.8367e-026 -4.8367e-026
node 6 3 1 1 -4.8367e-026 -4.8367e-026
node 7 1 1 3 -4.8367e-026 -4.8367e-026
node 8 1 0 2 -4.8367e-026 -4.8367e-026
gene 3 1 8 -1.89467 0 1 -1.89467 1
gene 2 2 8 0.536153 0 2 0.536153 1
gene 2 3 8 0.994629 0 3 0.994629 1
gene 1 4 8 0.949187 0 4 0.949187 1
gene 1 5 8 2.59615 0 5 2.59615 1
gene 1 6 8 3.88343 0 6 3.88343 1
gene 1 7 8 -0.178198 0 7 -0.178198 1
gene 2 8 8 -0.0771203 1 43 -0.0771203 1
genomeend 1554

/* Organism #1579 Fitness: 77 Error: 0 */
genomestart 1579
trait 1 0.1 0 0 0 0 0 0 0 
trait 2 0.2 0 0.0261706 0 0 0.0237272 0.0819422 0 
trait 3 0.3 0.453322 0.964843 0.599261 0.225501 0 0.805475 0.16007 
node 1 2 1 1 -4.8367e-026 -4.8367e-026
node 2 2 1 1 -4.8367e-026 -4.8367e-026
node 3 2 1 1 -4.8367e-026 -4.8367e-026
node 4 3 1 1 -4.8367e-026 -4.8367e-026
node 5 1 1 1 -4.8367e-026 -4.8367e-026
node 6 3 1 1 -4.8367e-026 -4.8367e-026
node 7 1 1 3 -4.8367e-026 -4.8367e-026
node 8 1 0 2 -4.8367e-026 -4.8367e-026
gene 3 1 8 -1.89467 0 1 -1.89467 1
gene 2 2 8 0.536153 0 2 0.536153 1
gene 2 3 8 0.994629 0 3 0.994629 1
gene 1 4 8 0.949187 0 4 0.949187 1
gene 1 5 8 2.59615 0 5 2.59615 1
gene 1 6 8 3.88343 0 6 3.88343 1
gene 1 7 8 -0.178198 0 7 -0.178198 1
gene 2 8 8 -0.0771203 1 43 -0.0771203 1
genomeend 1579

/* Organism #1734 Fitness: 77 Error: 0 */
genomestart 1734
trait 1 0.516059 0 0 0 0 0 0.528611 0 
trait 2 0.2 0 0.0261706 0 0 0.0237272 0.0819422 0 
trait 3 0.3 0.453322 0.964843 0.599261 0.225501 0 0.805475 0.16007 
node 1 2 1 1 -4.8367e-026 -4.8367e-026
node 2 2 1 1 -4.8367e-026 -4.8367e-026
node 3 2 1 1 -4.8367e-026 -4.8367e-026
node 4 3 1 1 -4.8367e-026 -4.8367e-026
node 5 1 1 1 -4.8367e-026 -4.8367e-026
node 6 3 1 1 -4.8367e-026 -4.8367e-026
node 7 1 1 3 -4.8367e-026 -4.8367e-026
node 8 1 0 2 -4.8367e-026 -4.8367e-026
gene 3 1 8 -1.89467 0 1 -1.89467 1
gene 2 2 8 0.536153 0 2 0.536153 1
gene 2 3 8 0.994629 0 3 0.994629 1
gene 1 4 8 0.949187 0 4 0.949187 1
gene 1 5 8 2.59615 0 5 2.59615 1
gene 1 6 8 3.88343 0 6 3.88343 1
gene 1 7 8 -0.178198 0 7 -0.178198 1
gene 2 8 8 -0.0771203 1 43 -0.0771203 1
genomeend 1734

/* Organism #1887 Fitness: 28 Error: 0 */
genomestart 1887
trait 1 0 0 0 0.364116 0 0 0 0 
trait 2 0.2 0 0.0130853 0 0 0.0118636 0.0409711 0 
trait 3 0.3 0.453322 0.964843 0.599261 0.225501 0 0.805475 0.16007 
node 1 2 1 1 -4.8367e-026 -4.8367e-026
node 2 2 1 1 -4.8367e-026 -4.8367e-026
node 3 2 1 1 -4.8367e-026 -4.8367e-026
node 4 3 1 1 -4.8367e-026 -4.8367e-026
node 5 1 1 1 -4.8367e-026 -4.8367e-026
node 6 3 1 1 -4.8367e-026 -4.8367e-026
node 7 1 1 3 -4.8367e-026 -4.8367e-026
node 8 1 0 2 -4.8367e-026 -4.8367e-026
gene 3 1 8 -3.04899 0 1 -3.04899 1
gene 2 2 8 -0.874355 0 2 -0.874355 1
gene 2 3 8 -1.82501 0 3 -1.82501 1
gene 1 4 8 2.42566 0 4 2.42566 1
gene 1 5 8 -0.626453 0 5 -0.626453 1
gene 1 6 8 3.69429 0 6 3.69429 1
gene 1 7 8 0.931944 0 7 0.931944 1
gene 2 8 8 1.44203 1 43 1.44203 1
genomeend 1887

/* Organism #2063 Fitness: 69 Error: 0 */
genomestart 2063
trait 1 0.154015 0 0 0.182058 0 0 0.132153 0 
trait 2 0.2 0 0.0196279 0 0 0.0177954 0.0614566 0 
trait 3 0.3 0.453322 0.964843 0.599261 0.225501 0 0.805475 0.16007 
node 1 2 1 1 -4.8367e-026 -4.8367e-026
node 2 2 1 1 -4.8367e-026 -4.8367e-026
node 3 2 1 1 -4.8367e-026 -4.8367e-026
node 4 3 1 1 -4.8367e-026 -4.8367e-026
node 5 1 1 1 -4.8367e-026 -4.8367e-026
node 6 3 1 1 -4.8367e-026 -4.8367e-026
node 7 1 1 3 -4.8367e-026 -4.8367e-026
node 8 1 0 2 -4.8367e-026 -4.8367e-026
gene 3 1 8 -2.15059 0 1 -2.15059 1
gene 2 2 8 0.488351 0 2 0.488351 1
gene 2 3 8 -0.490783 0 3 -0.490783 1
gene 1 4 8 1.84593 0 4 1.84593 1
gene 1 5 8 1.02068 0 5 1.02068 1
gene 1 6 8 3.54023 0 6 3.54023 1
gene 1 7 8 0.181219 0 7 0.181219 1
gene 2 8 8 0.572893 1 43 0.572893 1
genomeend 2063

/* Organism #2414 Fitness: 38 Error: 0 */
genomestart 2414
trait 1 0 0 0 0.364116 0 0 0 0 
trait 2 0.2 0 0.0130853 0 0 0.0118636 0.0409711 0 
trait 3 0.143257 0.453322 0.964843 1 0.225501 0 1 0.16007 
node 1 2 1 1 -4.8367e-026 -4.8367e-026
node 2 2 1 1 -4.8367e-026 -4.8367e-026
node 3 2 1 1 -4.8367e-026 -4.8367e-026
node 4 3 1 1 -4.8367e-026 -4.8367e-026
node 5 1 1 1 -4.8367e-026 -4.8367e-026
node 6 3 1 1 -4.8367e-026 -4.8367e-026
node 7 1 1 3 -4.8367e-026 -4.8367e-026
node 8 1 0 2 -4.8367e-026 -4.8367e-026
gene 3 1 8 -2.85492 0 1 -2.85492 1
gene 2 2 8 -0.734306 0 2 -0.734306 1
gene 2 3 8 -2.33695 0 3 -2.33695 1
gene 1 4 8 2.90309 0 4 2.90309 1
gene 1 5 8 -0.106601 0 5 -0.106601 1
gene 1 6 8 4.67555 0 6 4.67555 1
gene 1 7 8 0.871792 0 7 0.871792 1
gene 2 8 8 0.613849 1 43 0.613849 1
genomeend 2414

/* Organism #2474 Fitness: 77 Error: 0 */
genomestart 2474
trait 1 0.308029 0 0 0 0 0 0.264306 0 
trait 2 0.2 0 0.0261706 0 0 0.0237272 0.0819422 0 
trait 3 0.3 0.453322 0.964843 0.599261 0.225501 0 0.805475 0.16007 
node 1 2 1 1 -4.8367e-026 -4.8367e-026
node 2 2 1 1 -4.8367e-026 -4.8367e-026
node 3 2 1 1 -4.8367e-026 -4.8367e-026
node 4 3 1 1 -4.8367e-026 -4.8367e-026
node 5 1 1 1 -4.8367e-026 -4.8367e-026
node 6 3 1 1 -4.8367e-026 -4.8367e-026
node 7 1 1 3 -4.8367e-026 -4.8367e-026
node 8 1 0 2 -4.8367e-026 -4.8367e-026
gene 3 1 8 -1.89467 0 1 -1.89467 1
gene 2 2 8 0.536153 0 2 0.536153 1
gene 2 3 8 0.994629 0 3 0.994629 1
gene 1 4 8 0.949187 0 4 0.949187 1
gene 1 5 8 2.59615 0 5 2.59615 1
gene 1 6 8 3.88343 0 6 3.88343 1
gene 1 7 8 -0.178198 0 7 -0.178198 1
gene 2 8 8 -0.0771203 1 43 -0.0771203 1
genomeend 2474

/* Organism #2862 Fitness: 46 Error: 0 */
genomestart 2862
trait 1 0.1 0 0 0 0 0 0 0 
trait 2 0.2 0 0.0261706 0 0 0.0237272 0.0819422 0 
trait 3 0.3 0.453322 0.964843 0.599261 0.225501 0 0.805475 0.16007 
node 1 2 1 1 -4.8367e-026 -4.8367e-026
node 2 2 1 1 -4.8367e-026 -4.8367e-026
node 3 2 1 1 -4.8367e-026 -4.8367e-026
node 4 3 1 1 -4.8367e-026 -4.8367e-026
node 5 1 1 1 -4.8367e-026 -4.8367e-026
node 6 3 1 1 -4.8367e-026 -4.8367e-026
node 7 1 1 3 -4.8367e-026 -4.8367e-026
node 8 1 0 2 -4.8367e-026 -4.8367e-026
gene 3 1 8 -1.33319 0 1 -1.33319 1
gene 2 2 8 0.11631 0 2 0.11631 1
gene 2 3 8 0.765404 0 3 0.765404 1
gene 1 4 8 1.82434 0 4 1.82434 1
gene 1 5 8 1.70623 0 5 1.70623 1
gene 1 6 8 4.61359 0 6 4.61359 1
gene 1 7 8 -0.929716 0 7 -0.929716 1
gene 2 8 8 0.584826 1 43 0.584826 1
genomeend 2862

/* Organism #2936 Fitness: 49 Error: 0 */
genomestart 2936
trait 1 0.127007 0.102298 0 0.0910291 0 0 0.0660764 0.105441 
trait 2 0.2 0 0.0228993 0 0 0.0207613 0.0716994 0 
trait 3 0.3 0.453322 0.964843 0.599261 0.225501 0 0.805475 0.16007 
node 1 2 1 1 -4.8367e-026 -4.8367e-026
node 2 2 1 1 -4.8367e-026 -4.8367e-026
node 3 2 1 1 -4.8367e-026 -4.8367e-026
node 4 3 1 1 -4.8367e-026 -4.8367e-026
node 5 1 1 1 -4.8367e-026 -4.8367e-026
node 6 3 1 1 -4.8367e-026 -4.8367e-026
node 7 1 1 3 -4.8367e-026 -4.8367e-026
node 8 1 0 2 -4.8367e-026 -4.8367e-026
gene 3 1 8 -2.50894 0 1 -2.50894 1
gene 2 2 8 0.726675 0 2 0.726675 1
gene 2 3 8 0.401814 0 3 0.401814 1
gene 1 4 8 1.17133 0 4 1.17133 1
gene 1 5 8 1.56436 0 5 1.56436 1
gene 1 6 8 3.64466 0 6 3.64466 1
gene 1 7 8 -0.00993377 0 7 -0.00993377 1
gene 2 8 8 0.514176 1 43 0.514176 1
genomeend 2936

/* Organism #3035 Fitness: 77 Error: 0 */
genomestart 3035
trait 1 0.516059 0 0 0 0 0 0.528611 0 
trait 2 0.2 0 0.0261706 0 0 0.0237272 0.0819422 0 
trait 3 0.3 0.453322 0.964843 0.599261 0.225501 0 0.805475 0.16007 
node 1 2 1 1 -4.8367e-026 -4.8367e-026
node 2 2 1 1 -4.8367e-026 -4.8367e-026
node 3 2 1 1 -4.8367e-026 -4.8367e-026
node 4 3 1 1 -4.8367e-026 -4.8367e-026
node 5 1 1 1 -4.8367e-026 -4.8367e-026
node 6 3 1 1 -4.8367e-026 -4.8367e-026
node 7 1 1 3 -4.8367e-026 -4.8367e-026
node 8 1 0 2 -4.8367e-026 -4.8367e-026
gene 3 1 8 -1.89467 0 1 -1.89467 1
gene 2 2 8 0.536153 0 2 0.536153 1
gene 2 3 8 0.994629 0 3 0.994629 1
gene 1 4 8 0.949187 0 4 0.949187 1
gene 1 5 8 2.59615 0 5 2.59615 1
gene 1 6 8 3.88343 0 6 3.88343 1
gene 1 7 8 -0.178198 0 7 -0.178198 1
gene 2 8 8 -0.0771203 1 43 -0.0771203 1
genomeend 3035

/* Organism #3111 Fitness: 77 Error: 0 */
genomestart 3111
trait 1 0.516059 0 0 0 0 0 0.528611 0 
trait 2 0.2 0 0.0261706 0 0 0.0237272 0.0819422 0 
trait 3 0.3 0.453322 0.964843 0.599261 0.225501 0 0.805475 0.16007 
node 1 2 1 1 -4.8367e-026 -4.8367e-026
node 2 2 1 1 -4.8367e-026 -4.8367e-026
node 3 2 1 1 -4.8367e-026 -4.8367e-026
node 4 3 1 1 -4.8367e-026 -4.8367e-026
node 5 1 1 1 -4.8367e-026 -4.8367e-026
node 6 3 1 1 -4.8367e-026 -4.8367e-026
node 7 1 1 3 -4.8367e-026 -4.8367e-026
node 8 1 0 2 -4.8367e-026 -4.8367e-026
gene 3 1 8 -1.89467 0 1 -1.89467 1
gene 2 2 8 0.536153 0 2 0.536153 1
gene 2 3 8 0.994629 0 3 0.994629 1
gene 1 4 8 0.949187 0 4 0.949187 1
gene 1 5 8 2.59615 0 5 2.59615 1
gene 1 6 8 3.88343 0 6 3.88343 1
gene 1 7 8 -0.178198 0 7 -0.178198 1
gene 2 8 8 -0.0771203 1 43 -0.0771203 1
genomeend 3111

/* Organism #3124 Fitness: 69 Error: 0 */
genomestart 3124
trait 1 0.154015 0 0 0.182058 0 0 0.132153 0 
trait 2 0.2 0 0.0196279 0 0 0.0177954 0.0614566 0 
trait 3 0.3 0.453322 0.964843 0.599261 0.225501 0 0.805475 0.16007 
node 1 2 1 1 -4.8367e-026 -4.8367e-026
node 2 2 1 1 -4.8367e-026 -4.8367e-026
node 3 2 1 1 -4.8367e-026 -4.8367e-026
node 4 3 1 1 -4.8367e-026 -4.8367e-026
node 5 1 1 1 -4.8367e-026 -4.8367e-026
node 6 3 1 1 -4.8367e-026 -4.8367e-026
node 7 1 1 3 -4.8367e-026 -4.8367e-026
node 8 1 0 2 -4.8367e-026 -4.8367e-026
gene 3 1 8 -2.15059 0 1 -2.15059 1
gene 2 2 8 0.488351 0 2 0.488351 1
gene 2 3 8 -0.490783 0 3 -0.490783 1
gene 1 4 8 1.84593 0 4 1.84593 1
gene 1 5 8 1.02068 0 5 1.02068 1
gene 1 6 8 3.54023 0 6 3.54023 1
gene 1 7 8 0.181219 0 7 0.181219 1
gene 2 8 8 0.572893 1 43 0.572893 1
genomeend 3124

/* Organism #3138 Fitness: 45 Error: 0 */
genomestart 3138
trait 1 0 0 0 0.364116 0 0 0 0 
trait 2 0.2 0 0.0130853 0 0 0.0118636 0.0409711 0 
trait 3 0.3 0.453322 0.964843 0.599261 0.225501 0 0.805475 0.16007 
node 1 2 1 1 -4.8367e-026 -4.8367e-026
node 2 2 1 1 -4.8367e-026 -4.8367e-026
node 3 2 1 1 -4.8367e-026 -4.8367e-026
node 4 3 1 1 -4.8367e-026 -4.8367e-026
node 5 1 1 1 -4.8367e-026 -4.8367e-026
node 6 3 1 1 -4.8367e-026 -4.8367e-026
node 7 1 1 3 -4.8367e-026 -4.8367e-026
node 8 1 0 2 -4.8367e-026 -4.8367e-026
gene 3 1 8 -2.18425 0 1 -2.18425 1
gene 2 2 8 -0.475906 0 2 -0.475906 1
gene 2 3 8 -1.80386 0 3 -1.80386 1
gene 1 4 8 0.141758 0 4 0.141758 1
gene 1 5 8 -0.215796 0 5 -0.215796 1
gene 1 6 8 4.19259 0 6 4.19259 1
gene 1 7 8 -0.236732 0 7 -0.236732 1
gene 2 8 8 0.89227 1 43 0.89227 1
genomeend 3138

/* Organism #3149 Fitness: 77 Error: 0 */
genomestart 3149
trait 1 0.516059 0 0 0 0 0 0.528611 0 
trait 2 0.2 0 0.0261706 0 0 0.0237272 0.0819422 0 
trait 3 0.3 0.453322 0.964843 0.599261 0.225501 0 0.805475 0.16007 
node 1 2 1 1 -4.8367e-026 -4.8367e-026
node 2 2 1 1 -4.8367e-026 -4.8367e-026
node 3 2 1 1 -4.8367e-026 -4.8367e-026
node 4 3 1 1 -4.8367e-026 -4.8367e-026
node 5 1 1 1 -4.8367e-026 -4.8367e-026
node 6 3 1 1 -4.8367e-026 -4.8367e-026
node 7 1 1 3 -4.8367e-026 -4.8367e-026
node 8 1 0 2 -4.8367e-026 -4.8367e-026
gene 3 1 8 -1.89467 0 1 -1.89467 1
gene 2 2 8 0.536153 0 2 0.536153 1
gene 2 3 8 0.994629 0 3 0.994629 1
gene 1 4 8 0.949187 0 4 0.949187 1
gene 1 5 8 2.59615 0 5 2.59615 1
gene 1 6 8 3.88343 0 6 3.88343 1
gene 1 7 8 -0.178198 0 7 -0.178198 1
gene 2 8 8 -0.0771203 1 43 -0.0771203 1
genomeend 3149

/* Organism #3153 Fitness: 47 Error: 0 */
genomestart 3153
trait 1 0 0 0 0.364116 0 0 0 0 
trait 2 0.2 0 0.0130853 0 0 0.0118636 0.0409711 0 
trait 3 0.3 0.453322 0.964843 0.599261 0.225501 0 0.805475 0.16007 
node 1 2 1 1 -4.8367e-026 -4.8367e-026
node 2 2 1 1 -4.8367e-026 -4.8367e-026
node 3 2 1 1 -4.8367e-026 -4.8367e-026
node 4 3 1 1 -4.8367e-026 -4.8367e-026
node 5 1 1 1 -4.8367e-026 -4.8367e-026
node 6 3 1 1 -4.8367e-026 -4.8367e-026
node 7 1 1 3 -4.8367e-026 -4.8367e-026
node 8 1 0 2 -4.8367e-026 -4.8367e-026
gene 2 1 8 -2.44927 0 1 -2.44927 1
gene 2 2 8 0.244942 0 2 0.244942 1
gene 2 3 8 -0.714133 0 3 -0.714133 1
gene 1 4 8 1.72529 0 4 1.72529 1
gene 1 5 8 -0.265236 0 5 -0.265236 1
gene 1 6 8 2.51075 0 6 2.51075 1
gene 1 7 8 0.417005 0 7 0.417005 1
gene 2 8 8 0.651997 1 43 0.651997 1
genomeend 3153

/* Organism #3259 Fitness: 62 Error: 0 */
genomestart 3259
trait 1 0.1 0 0 0 0 0 0 0 
trait 2 0.2 0 0.0218088 0 0 0.0197727 0.0682852 0 
trait 3 0.3 0.453322 0.964843 0.599261 0.225501 0 0.805475 0.16007 
node 1 2 1 1 -4.8367e-026 -4.8367e-026
node 2 2 1 1 -4.8367e-026 -4.8367e-026
node 3 2 1 1 -4.8367e-026 -4.8367e-026
node 4 3 1 1 -4.8367e-026 -4.8367e-026
node 5 1 1 1 -4.8367e-026 -4.8367e-026
node 6 3 1 1 -4.8367e-026 -4.8367e-026
node 7 1 1 3 -4.8367e-026 -4.8367e-026
node 8 1 0 2 -4.8367e-026 -4.8367e-026
gene 3 1 8 -2.1658 0 1 -2.1658 1
gene 2 2 8 0.892045 0 2 0.892045 1
gene 2 3 8 0.474853 0 3 0.474853 1
gene 1 4 8 2.12991 0 4 2.12991 1
gene 1 5 8 3.49157 0 5 3.49157 1
gene 1 6 8 2.98216 0 6 2.98216 1
gene 1 7 8 -0.16604 0 7 -0.16604 1
gene 2 8 8 -0.238807 1 43 -0.238807 1
genomeend 3259

/* Organism #3375 Fitness: 77 Error: 0 */
genomestart 3375
trait 1 0.1 0 0 0 0 0 0 0 
trait 2 0.2 0 0 0 0.886776 0.0237272 0 0.337992 
trait 3 0.3 0.453322 0.964843 0.599261 0.225501 0 0.805475 0.16007 
node 1 2 1 1 -4.8367e-026 -4.8367e-026
node 2 2 1 1 -4.8367e-026 -4.8367e-026
node 3 2 1 1 -4.8367e-026 -4.8367e-026
node 4 3 1 1 -4.8367e-026 -4.8367e-026
node 5 1 1 1 -4.8367e-026 -4.8367e-026
node 6 3 1 1 -4.8367e-026 -4.8367e-026
node 7 1 1 3 -4.8367e-026 -4.8367e-026
node 8 1 0 2 -4.8367e-026 -4.8367e-026
gene 3 1 8 -1.89467 0 1 -1.89467 1
gene 2 2 8 0.536153 0 2 0.536153 1
gene 2 3 8 0.994629 0 3 0.994629 1
gene 1 4 8 0.949187 0 4 0.949187 1
gene 1 5 8 2.59615 0 5 2.59615 1
gene 1 6 8 3.88343 0 6 3.88343 1
gene 1 7 8 -0.178198 0 7 -0.178198 1
gene 2 8 8 -0.0771203 1 43 -0.0771203 1
genomeend 3375

/* Organism #3536 Fitness: 77 Error: 0 */
genomestart 3536
trait 1 0.308029 0 0 0 0 0 0.264306 0 
trait 2 0.2 0 0.0261706 0 0 0.0237272 0.0819422 0 
trait 3 0.3 0.453322 0.964843 0.599261 0.225501 0 0.805475 0.16007 
node 1 2 1 1 -4.8367e-026 -4.8367e-026
node 2 2 1 1 -4.8367e-026 -4.8367e-026
node 3 2 1 1 -4.8367e-026 -4.8367e-026
node 4 3 1 1 -4.8367e-026 -4.8367e-026
node 5 1 1 1 -4.8367e-026 -4.8367e-026
node 6 3 1 1 -4.8367e-026 -4.8367e-026
node 7 1 1 3 -4.8367e-026 -4.8367e-026
node 8 1 0 2 -4.8367e-026 -4.8367e-026
gene 3 1 8 -1.89467 0 1 -1.89467 1
gene 2 2 8 0.536153 0 2 0.536153 1
gene 2 3 8 0.994629 0 3 0.994629 1
gene 1 4 8 0.949187 0 4 0.949187 1
gene 1 5 8 2.59615 0 5 2.59615 1
gene 1 6 8 3.88343 0 6 3.88343 1
gene 1 7 8 -0.178198 0 7 -0.178198 1
gene 2 8 8 -0.0771203 1 43 -0.0771203 1
genomeend 3536

/* Organism #3589 Fitness: 77 Error: 0 */
genomestart 3589
trait 1 0.412044 0 0 0 0 0 0.396458 0 
